tree
version=v4
num_class=1
num_tree_per_iteration=1
label_index=0
max_feature_idx=22
objective=regression
feature_names=age study_hours class_attendance sleep_hours gender_male gender_other course_b.sc course_b.tech course_ba course_bba course_bca course_diploma internet_access_yes sleep_quality_good sleep_quality_poor study_method_group_study study_method_mixed study_method_online_videos study_method_self-study facility_rating_low facility_rating_medium exam_difficulty_hard exam_difficulty_moderate
feature_infos=[17:24] [0.080000000000000002:7.9100000000000001] [40.600000000000001:99.400000000000006] [4.0999999999999996:9.9000000000000004] [0:1] [0:1] [0:1] [0:1] [0:1] [0:1] [0:1] [0:1] [0:1] [0:1] [0:1] [0:1] [0:1] [0:1] [0:1] [0:1] [0:1] [0:1] [0:1]
tree_sizes=2935 3028 3016 3033 3055 3029 3059 3042 3068 3041 3066 3044 3051 3045 3045 3030 3037 3024 3048 3040 3027 3061 3052 3069 3049 3055 3052 3037 3047 3056 3057 3057 3030 3028 3061 3060 3030 3043 3060 3031 3050 3063 3036 3062 3049 3052 3064 3027 3065 3053 3049 3045 3044 3040 3054 3048 3019 3059 3050 3063 3053 3048 3024 3047 3043 3073 3031 3039 3043 3032 3019 3046 3043 3029 3054 3013 3033 3069 3030 3014 3055 3042 3021 3025 3039 2988 3062 3037 3017 3055 3019 3031 2993 3041 3045 3041 3006 2998 3044 3011 3053 3040 3021 3004 3075 3007 3030 2981 3061 3049 3035 3067 3046 3036 3012 3027 3035 3041 3025 3069 3004 3032 3012 3026 3061 3055 3043 3028 3013 2973 3059 3023 3018 3020 3028 3063 3012 3001 3035 3030 3022 3055 3043 3034 2970 3010 3010 3059 3058 2974 3060 3082 3038 2998 3069 3054 2977 3069 3037 3014 3047 3028 2940 3043 2995 3038 3062 2997 2649 3025 3023 3055 3025 2954 3026 2983 3008 2971 3028 3014 3040 3032 2928 3049 3039 3021 3013 3026 2960 3033 2988 3034 3050 2941 3068 3030 2994 2656 2663 3049 3042 2979 3018 3027 3035 3004 2979 3010 3044 3034 3012 2653 3059 2980 3031 2957 3038 3016 3009 2845 3052 3013 2884 3001 3034 3013 2999 3050 2974 3041 2957 2962 3046 3046 3059 2995 2979 3007 2997 3014 2961 3042 2968 3025 2509 3043 3030 2960 2966 3046 2916 2980 3039 2898 3014 2991 3008 2989 2984 3001 2998 3024 3000 2983 3050 2989 2997 2978 2889 2953 2989 3051 2989 2986 2990 3037 3054 3011 3000 2971 3015 2974 2779 3006 2898 3024 3025 2959 3013 2975 2970 2976 2975 2979 2890 3013 3043 3031 2961 2993 2891 2977 3038 3000 3003 3008 3048 2975 3043 2956 3024 3025 3059 2984 2530 2955 2980 3007 3047 2955 2948 2997 2914 2998 3033 2945 3014 3000 3034 2978 2955 2970 2950 3026 3007 3029 2952 3039 2987 2983 2930 2977 2996 2970 2917 2947 2924 3050 3007 3039 3042 3026 2948 2990 2958 2908 2953 2988 2985 2969 3036 3058 3055 2962 2952 2954 2988 2965 2966 2967 2967 2958 2980 2915 3029 2936 3013 3006 2960 3009 3068 2769 2946 3015 2926 2934 2923 3023 2999 3018 3005 2922 3014 2832 2966 2961 3020 2915 2905 2966 2972 2983 3022 2996 3003 2911 2981 2939 2916 2960 2948 3004 3053 2968 2972 2984 3062 3014 3031 2941 2920 2983 2961 2968 3020 2953 2952 3001 2971 2985 2969 3031 2915 3000 2948 2946 2981 3015 2989 3045 2896 2953 2937 2965 3013 3024 2980 3015 2956 2988 2923 3009 2938 2987 2996 2907 2983 2986 2923 2961 3020 3000 3036 2934 2965 2981 2980 2867 2966 2976 2956 2969 3026 3024 2979 3004 2937 2961 2997 2948 2983 3000 2990 2995 3015 2986 2977 3019 3034 2969 3041 3002 3003 2986 3014 2944 2949 2959 3010 2932

Tree=0
num_leaves=31
num_cat=0
split_feature=1 1 1 2 2 2 2 14 13 14 14 14 13 1 14 14 1 1 1 2 1 1 1 1 1 2 1 19 2 1
split_gain=8.04021e+07 9.77587e+06 9.63948e+06 3.31529e+06 2.9718e+06 2.73806e+06 2.68793e+06 904130 804852 716884 687915 630424 625273 599469 539758 513698 456450 413830 384509 333377 330860 296576 271820 257255 237508 202326 197958 180844 149737 135652
threshold=3.9150000000000005 6.0150000000000006 2.1150000000000007 70.250000000000014 66.050000000000011 70.550000000000011 66.950000000000017 1.0000000180025095e-35 1.0000000180025095e-35 1.0000000180025095e-35 1.0000000180025095e-35 1.0000000180025095e-35 1.0000000180025095e-35 5.2550000000000008 1.0000000180025095e-35 1.0000000180025095e-35 7.1550000000000011 0.78500000000000014 3.0050000000000003 82.950000000000017 5.0650000000000004 6.9150000000000009 3.0350000000000006 5.2550000000000008 6.9150000000000009 86.750000000000014 0.87500000000000011 1.0000000180025095e-35 56.650000000000013 4.995000000000001
decision_type=2 2 2 2 2 2 2 2 2 2 2 2 2 2 2 2 2 2 2 2 2 2 2 2 2 2 2 2 2 2
left_child=2 4 3 8 14 11 15 13 17 16 18 22 19 -6 20 21 -8 -1 -7 -5 -2 -3 -4 -9 -11 -12 -14 -10 -13 -16
right_child=1 6 5 12 7 10 9 23 27 24 25 28 26 -15 29 -17 -18 -19 -20 -21 -22 -23 -24 -25 -26 -27 -28 -29 -30 -31
leaf_value=61.026686968987946 62.454171815371758 63.042083371739018 61.917023420848004 61.546319266821591 62.968783960210182 62.386858813302382 63.545662276882879 62.616608558897923 61.682566350723505 63.181807883584284 62.041629697943392 61.560029537939407 61.867234890749238 63.313172941526119 62.08387200735104 62.858326676705069 63.828773544313357 61.324254926245423 62.708589746096841 61.823311370425131 62.782986254776219 63.353047281092316 62.201272590950424 62.937397574483889 63.49181089406941 62.352888393732016 62.176537287586363 61.37848206566445 61.840032164356785 62.389496482644354
leaf_weight=18976 18538 13523 17282 18549 35945 18120 29912 16803 13998 10704 10722 9845 9292 19486 7998 14506 27168 30405 19050 26215 13026 17708 16384 9951 14614 10176 11670 7514 9271 6649
leaf_count=18976 18538 13523 17282 18549 35945 18120 29912 16803 13998 10704 10722 9845 9292 19486 7998 14506 27168 30405 19050 26215 13026 17708 16384 9951 14614 10176 11670 7514 9271 6649
internal_value=62.4823 63.1026 61.8394 61.5583 62.7943 62.1858 63.4116 62.9746 61.3211 63.5822 62.4227 61.9251 61.8141 63.0898 62.4735 63.1042 63.6804 61.2099 62.5517 61.7085 62.5899 63.2184 62.0554 62.7359 63.3607 62.1932 62.0394 61.5764 61.6958 62.2226
internal_weight=0 256531 247469 136619 128396 110850 128135 82185 70893 82398 58068 52782 65726 55431 46211 45737 57080 49381 37170 44764 31564 31231 33666 26754 25318 20898 20962 21512 19116 14647
internal_count=504000 256531 247469 136619 128396 110850 128135 82185 70893 82398 58068 52782 65726 55431 46211 45737 57080 49381 37170 44764 31564 31231 33666 26754 25318 20898 20962 21512 19116 14647
is_linear=0
shrinkage=1


Tree=1
num_leaves=31
num_cat=0
split_feature=1 1 1 2 2 2 2 14 14 14 14 13 1 2 14 14 1 14 1 1 19 19 2 1 2 1 19 19 1 1
split_gain=7.25629e+07 8.82272e+06 8.69964e+06 3.01463e+06 2.69305e+06 2.49792e+06 2.42737e+06 861110 718014 656778 654952 612184 582638 488419 458496 451265 420300 415808 404696 308700 261336 260985 260348 252734 247427 219718 186836 141755 114634 104661
threshold=3.9150000000000005 6.0150000000000006 2.1150000000000007 66.950000000000017 62.050000000000004 66.050000000000011 65.65000000000002 1.0000000180025095e-35 1.0000000180025095e-35 1.0000000180025095e-35 1.0000000180025095e-35 1.0000000180025095e-35 5.2550000000000008 86.950000000000017 1.0000000180025095e-35 1.0000000180025095e-35 7.1550000000000011 1.0000000180025095e-35 0.82500000000000007 0.78500000000000014 1.0000000180025095e-35 1.0000000180025095e-35 82.950000000000017 5.2550000000000008 86.450000000000017 6.9150000000000009 1.0000000180025095e-35 1.0000000180025095e-35 6.9150000000000009 3.3050000000000002
decision_type=2 2 2 2 2 2 2 2 2 2 2 2 2 2 2 2 2 2 2 2 2 2 2 2 2 2 2 2 2 2
left_child=2 4 3 11 17 14 15 12 13 18 16 19 -6 -7 26 21 -8 20 -5 -1 -2 -3 -11 -9 -10 -12 -4 -13 -17 -16
right_child=1 6 5 9 7 8 10 23 24 22 25 27 -14 -15 29 28 -18 -19 -20 -21 -22 -23 -24 -25 -26 -27 -28 -29 -30 -31
leaf_value=-1.3979895025531874 0.17233313287723084 0.79630396110387547 -0.36153977741981747 -0.71887615609690891 0.44093898227260758 -0.10821711413752014 1.0028457113185141 0.10905125069354545 -0.44621156735833517 -1.0305238771196013 0.65943437956143036 -0.79234244582889324 0.76608227935548068 0.23305309188105353 -0.88753715311008963 0.17811187149985697 1.2702000600115264 -0.2853774303797994 -0.42276753269952655 -1.1272552560692108 -0.16148950907088949 0.48309761126988526 -0.7131876264049023 0.41538051986542784 -0.1246819498196524 0.95321350988696707 -0.63728386861252406 -1.07857295081469 0.46899777965239475 -0.60465535065719389
leaf_weight=17162 17927 19194 17345 20030 39073 26728 30895 18057 14304 12121 11017 12334 21283 17251 10719 6064 28044 12607 27220 27243 8712 10178 13847 10737 10286 15071 9512 6662 7672 4705
leaf_count=17162 17927 19194 17345 20030 39073 26728 30895 18057 14304 12121 11017 12334 21283 17251 10719 6064 28044 12607 27220 27243 8712 10178 13847 10737 10286 15071 9512 6662 7672 4705
internal_value=0 0.589254 -0.610832 -0.877869 0.296327 -0.281717 0.882778 0.44826 -0.0953363 -0.659309 1.03773 -1.13027 0.555592 0.025648 -0.583978 0.577142 1.13006 -0.0488007 -0.548293 -1.23189 0.06316 0.687772 -0.86131 0.223278 -0.311716 0.82915 -0.459201 -0.892725 0.340581 -0.801246
internal_weight=0 256531 247469 136619 128396 110850 128135 89150 68569 73218 85027 63401 60356 43979 42281 43108 58939 39246 47250 44405 26639 29372 25968 28794 24590 26088 26857 18996 13736 15424
internal_count=504000 256531 247469 136619 128396 110850 128135 89150 68569 73218 85027 63401 60356 43979 42281 43108 58939 39246 47250 44405 26639 29372 25968 28794 24590 26088 26857 18996 13736 15424
is_linear=0
shrinkage=0.05


Tree=2
num_leaves=31
num_cat=0
split_feature=1 1 1 2 2 2 2 14 14 13 14 14 14 14 13 2 1 1 1 19 19 2 1 2 1 2 1 2 1 1
split_gain=6.5488e+07 7.96251e+06 7.88657e+06 2.5488e+06 2.53389e+06 2.48178e+06 2.20562e+06 702468 692491 683183 542260 525802 523359 476230 469020 468247 380775 361390 352325 336244 326197 247183 244373 235912 213887 205211 175863 163951 146551 136294
threshold=3.9150000000000005 6.0150000000000006 1.9850000000000001 72.350000000000009 66.050000000000011 70.250000000000014 70.750000000000014 1.0000000180025095e-35 1.0000000180025095e-35 1.0000000180025095e-35 1.0000000180025095e-35 1.0000000180025095e-35 1.0000000180025095e-35 1.0000000180025095e-35 1.0000000180025095e-35 86.950000000000017 5.2550000000000008 5.0650000000000004 6.9150000000000009 1.0000000180025095e-35 1.0000000180025095e-35 86.750000000000014 4.7350000000000012 92.15000000000002 3.0350000000000006 50.95000000000001 6.9150000000000009 91.750000000000014 4.995000000000001 6.8550000000000013
decision_type=2 2 2 2 2 2 2 2 2 2 2 2 2 2 2 2 2 2 2 2 2 2 2 2 2 2 2 2 2 2
left_child=2 5 3 8 13 10 11 15 20 16 17 18 19 24 23 -6 -7 -2 -3 -8 -1 -9 -11 -5 -4 -10 -14 -16 -12 -13
right_child=1 6 4 14 7 9 12 21 25 22 28 29 26 -15 27 -17 -18 -19 -20 -21 -22 -23 -24 -25 -26 -27 -28 -29 -30 -31
leaf_value=-0.83388161474349509 0.0099781306437587945 0.52589853578270207 -0.57515670897856042 -0.78866083439972312 -0.11789628821574681 0.25267205448294339 1.1981496165262631 -0.44101775116655473 -1.4557304192841369 0.50313746470090914 -0.32468835235328086 0.19919778391184606 0.65924130246600832 -0.78674151678843829 -0.50085676930058864 0.20499763092041332 0.5507635752625073 0.31906901897207074 0.83292168351894247 0.91876220773418871 -1.1164693367925971 -0.13048008105429723 0.8161860672254555 -0.5250885855997125 -0.30348402271558794 -1.1599626206130773 0.94053595879851359 -0.17863243619767546 -0.036811508989823119 0.48686882026667866
leaf_weight=27876 22641 16118 16484 26931 28594 29185 34251 15558 9047 10771 9732 6917 9667 17237 12471 18487 16926 16240 22234 15708 16116 10896 14800 12398 12926 16672 13067 5776 8101 10173
leaf_count=27876 22641 16118 16484 26931 28594 29185 34251 15558 9047 10771 9732 6917 9667 17237 12471 18487 16926 16240 22234 15708 16116 10896 14800 12398 12926 16672 13067 5776 8101 10173
internal_value=0 0.559791 -0.58029 -0.854562 -0.289804 0.281511 0.838639 -0.106948 -1.0579 0.477042 0.0343746 0.601104 1.0198 -0.57806 -0.608369 0.00889244 0.362093 0.139081 0.703891 1.11031 -0.937405 -0.313112 0.684324 -0.705573 -0.455754 -1.264 0.820923 -0.398858 -0.193914 0.370437
internal_weight=0 256531 247469 127287 120182 128396 128135 73535 69711 71682 56714 55442 72693 46647 57576 47081 46111 38881 38352 49959 43992 26454 25571 39329 29410 25719 22734 18247 17833 17090
internal_count=504000 256531 247469 127287 120182 128396 128135 73535 69711 71682 56714 55442 72693 46647 57576 47081 46111 38881 38352 49959 43992 26454 25571 39329 29410 25719 22734 18247 17833 17090
is_linear=0
shrinkage=0.05


Tree=3
num_leaves=31
num_cat=0
split_feature=1 1 1 2 2 2 2 13 13 14 1 19 13 2 13 14 13 1 19 13 19 19 2 2 1 2 2 19 1 1
split_gain=5.91029e+07 7.18616e+06 7.12752e+06 2.52299e+06 2.25714e+06 2.01116e+06 2.00337e+06 614734 581361 576133 565572 559891 530331 386610 383823 376230 362821 360527 357701 337813 294201 245041 233569 205657 202806 198947 162492 146283 128417 99953.8
threshold=3.9150000000000005 6.0150000000000006 2.1450000000000005 66.950000000000017 73.350000000000009 66.950000000000017 65.65000000000002 1.0000000180025095e-35 1.0000000180025095e-35 1.0000000180025095e-35 7.1550000000000011 1.0000000180025095e-35 1.0000000180025095e-35 86.950000000000017 1.0000000180025095e-35 1.0000000180025095e-35 1.0000000180025095e-35 0.82500000000000007 1.0000000180025095e-35 1.0000000180025095e-35 1.0000000180025095e-35 1.0000000180025095e-35 83.850000000000009 91.950000000000017 3.1750000000000003 87.15000000000002 55.45000000000001 1.0000000180025095e-35 0.82500000000000007 6.9150000000000009
decision_type=2 2 2 2 2 2 2 2 2 2 2 2 2 2 2 2 2 2 2 2 2 2 2 2 2 2 2 2 2 2
left_child=2 4 3 12 11 15 16 13 17 18 19 14 20 -8 -2 21 24 -5 -6 -7 -1 -3 -12 -9 -4 -10 -13 -11 -14 -17
right_child=1 5 6 8 9 10 7 23 25 27 22 26 28 -15 -16 29 -18 -19 -20 -21 -22 -23 -24 -25 -26 -27 -28 -29 -30 -31
leaf_value=-1.0119245104501837 0.042033516239845192 0.73056184883511011 -0.7343051109863441 -0.84921997181386788 0.67458864007631492 0.71588300939570726 -0.30309855021384674 0.050542772311800294 -0.50025918229484012 0.35230722219548766 0.95188159717295218 -0.31042852989014519 -0.95576381572014224 -0.00778998298108624 0.35206322712469817 0.17222485836517601 -0.30143397991420934 -0.57702517732073555 0.36568017719038526 1.0046614925255832 -1.2751535003722294 0.4362560575123442 1.1982347015833019 0.40854901821059042 -0.46142131474921561 -0.20302304551711348 -0.02784943429160713 0.073922944831802298 -0.69265749808336763 0.4366584802391647
leaf_weight=27915 26858 20407 16838 20366 30032 27795 27600 16356 14825 14607 17997 9621 7766 18520 15889 6377 12609 30211 13622 15932 17128 10824 20674 5315 11431 9076 10796 6971 11513 8129
leaf_count=27915 26858 20407 16838 20366 30032 27795 27600 16356 14825 14607 17997 9621 7766 18520 15889 6377 12609 30211 13622 15932 17128 10824 20674 5315 11431 9076 10796 6971 11513 8129
internal_value=0 0.531802 -0.551276 -0.788706 0.267435 0.796707 -0.248012 -0.0813039 -0.5906 0.473725 0.944289 0.0543913 -1.01809 -0.184514 0.157271 0.530828 -0.524476 -0.686631 0.578195 0.8211 -1.11202 0.628562 1.08359 0.138347 -0.62396 -0.387389 -0.161008 0.262372 -0.798642 0.32041
internal_weight=0 256531 247469 138800 128396 128135 108669 67791 74478 65232 82398 63164 64322 46120 42747 45737 40878 50577 43654 43727 45043 31231 38671 21671 28269 23901 20417 21578 19279 14506
internal_count=504000 256531 247469 138800 128396 128135 108669 67791 74478 65232 82398 63164 64322 46120 42747 45737 40878 50577 43654 43727 45043 31231 38671 21671 28269 23901 20417 21578 19279 14506
is_linear=0
shrinkage=0.05


Tree=4
num_leaves=31
num_cat=0
split_feature=1 1 1 2 2 2 2 1 14 1 13 13 13 13 2 13 13 14 3 14 19 2 19 2 14 19 19 2 19 19
split_gain=5.33944e+07 8.31091e+06 4.82269e+06 2.28038e+06 2.10687e+06 1.92603e+06 1.75139e+06 987628 601695 578403 577949 472479 445603 396720 375678 371098 365705 361019 291761 236278 229236 225930 208836 202978 191386 184051 178177 135603 124786 118762
threshold=3.5750000000000006 5.5050000000000008 1.9850000000000001 65.65000000000002 72.65000000000002 79.850000000000009 71.450000000000017 6.6650000000000009 1.0000000180025095e-35 6.6650000000000009 1.0000000180025095e-35 1.0000000180025095e-35 1.0000000180025095e-35 1.0000000180025095e-35 58.95000000000001 1.0000000180025095e-35 1.0000000180025095e-35 1.0000000180025095e-35 6.9500000000000011 1.0000000180025095e-35 1.0000000180025095e-35 56.95000000000001 1.0000000180025095e-35 59.650000000000013 1.0000000180025095e-35 1.0000000180025095e-35 1.0000000180025095e-35 91.950000000000017 1.0000000180025095e-35 1.0000000180025095e-35
decision_type=2 2 2 2 2 2 2 2 2 2 2 2 2 2 2 2 2 2 2 2 2 2 2 2 2 2 2 2 2 2
left_child=2 5 4 9 8 10 11 16 18 24 14 21 20 26 -2 22 -5 -9 -1 -11 -8 -4 -6 -12 -3 -10 -7 -17 -14 -15
right_child=1 3 6 7 15 13 12 17 25 19 23 -13 28 29 -16 27 -18 -19 -20 -21 -22 -23 -24 -25 -26 -27 -28 -29 -30 -31
leaf_value=-0.97385774895041388 -0.27740640158315705 0.35108262988585642 -0.74919787073299426 0.55202000174604471 -0.54877643993981651 0.37525438638907771 -0.10696477956647243 1.0491704431677422 -1.0426685657971204 0.67772194479563153 0.024708914288400698 -0.29051710154180699 0.21652320503214179 0.68916218856951605 0.0090247247568383329 -0.45234124433850315 0.84574375105221411 0.78463050954727387 -0.7171550384086931 0.37454357989119785 -0.37897019640150109 -0.49177936088820923 -0.7915705579786152 0.30984243951856805 0.050175544644219174 -1.3171998051632541 0.11295178182125093 -0.15772312992424636 -0.076596111764822047 0.38821350194761561
leaf_weight=21822 21079 16159 17340 28978 25404 20327 22092 41774 16066 20442 11732 15607 10647 11222 25054 12383 16707 18657 22463 9373 11928 16765 13597 13337 7852 9847 9500 5705 5510 4631
leaf_count=21822 21079 16159 17340 28978 25404 20327 22092 41774 16066 20442 11732 15607 10647 11222 25054 12383 16707 18657 22463 9373 11928 16765 13597 13337 7852 9847 9500 5705 5510 4631
internal_value=0 0.46621 -0.568098 0.700409 -0.772178 0.145731 -0.308042 0.834871 -0.955625 0.435323 -0.0168407 -0.518383 -0.0996501 0.399134 -0.121851 -0.546607 0.659435 0.967498 -0.843649 0.582411 -0.202335 -0.622659 -0.633422 0.176403 0.252681 -1.14699 0.29171 -0.359418 0.116561 0.601249
internal_weight=0 276824 227176 159942 127287 116882 99889 106116 70198 53826 71202 49712 50177 45680 46133 57089 45685 60431 44285 29815 34020 34105 39001 25069 24011 25913 29827 18088 16157 15853
internal_count=504000 276824 227176 159942 127287 116882 99889 106116 70198 53826 71202 49712 50177 45680 46133 57089 45685 60431 44285 29815 34020 34105 39001 25069 24011 25913 29827 18088 16157 15853
is_linear=0
shrinkage=0.05


Tree=5
num_leaves=31
num_cat=0
split_feature=1 1 1 2 2 2 2 14 1 14 14 2 1 19 14 14 2 14 14 14 19 2 1 1 1 2 1 2 1 1
split_gain=4.82555e+07 5.98584e+06 5.70427e+06 2.21878e+06 1.91157e+06 1.68158e+06 1.56674e+06 650064 545580 528092 477848 475179 461889 366339 330499 311249 288628 288347 277253 267071 255829 233863 207746 196768 181087 179867 177769 170003 106252 92451.3
threshold=3.8750000000000004 6.0150000000000006 2.2750000000000004 66.950000000000017 62.050000000000004 75.250000000000014 80.250000000000014 1.0000000180025095e-35 1.3650000000000004 1.0000000180025095e-35 1.0000000180025095e-35 86.950000000000017 6.9150000000000009 1.0000000180025095e-35 1.0000000180025095e-35 1.0000000180025095e-35 62.050000000000004 1.0000000180025095e-35 1.0000000180025095e-35 1.0000000180025095e-35 1.0000000180025095e-35 86.950000000000017 4.8650000000000011 5.0650000000000004 3.0050000000000003 56.050000000000004 0.75500000000000012 56.95000000000001 6.7550000000000008 4.7350000000000012
decision_type=2 2 2 2 2 2 2 2 2 2 2 2 2 2 2 2 2 2 2 2 2 2 2 2 2 2 2 2 2 2
left_child=2 4 3 10 15 12 9 11 14 16 20 -6 25 19 -5 22 -4 24 -14 -7 -1 -10 -2 -9 -8 -3 -12 -11 -15 -17
right_child=1 5 6 8 7 13 17 23 21 27 26 -13 18 28 -16 29 -18 -19 -20 -21 -22 -23 -24 -25 -26 -27 -28 -29 -30 -31
leaf_value=-0.71523372057148027 -0.094225451802118776 0.23159293569585923 -0.38396240857734143 -0.52948042698391562 0.34637693336420933 1.070824192753802 0.0045081787148221206 0.058918567158465197 -0.46599652904530003 -0.71634366695480045 -1.2671137996164914 0.63196116065981478 0.74488527596004939 0.57312069059393511 -0.80403284990655777 -0.41424373882345722 -0.1188527144989715 -0.1315625464635819 0.44936458568147686 0.80308880070547117 -0.97085238726569656 -0.18258893570407089 0.18256362265758505 0.3209151559986676 0.29082011175256278 0.49166669978276123 -0.98768267499687834 -0.43958401208675846 0.81370856589544749 -0.14121991188109714
leaf_weight=26583 13338 11172 20180 31101 37089 29413 9820 16634 18813 9054 8741 23985 26284 7204 16927 5227 20899 12841 11370 13631 15493 11873 13786 12591 12620 16418 16316 14332 12643 7622
leaf_count=26583 13338 11172 20180 31101 37089 29413 9820 16634 18813 9054 8741 23985 26284 7204 16927 5227 20899 12841 11370 13631 15493 11873 13786 12591 12620 16418 16316 14332 12643 7622
internal_value=0 0.476962 -0.501848 -0.701127 0.238297 0.719608 -0.210466 0.36573 -0.521024 -0.357064 -0.912299 0.458532 0.541772 0.904097 -0.626244 -0.0495731 -0.249087 0.0573971 0.65565 0.986039 -0.809356 -0.356341 0.0464549 0.171794 0.165527 0.386355 -1.08516 -0.546733 0.726381 -0.252287
internal_weight=0 258407 245593 145847 130272 128135 99746 90299 78714 64465 67133 61074 65244 62891 48028 39973 41079 35281 37654 43044 42076 30686 27124 29225 22440 27590 25057 23386 19847 12849
internal_count=504000 258407 245593 145847 130272 128135 99746 90299 78714 64465 67133 61074 65244 62891 48028 39973 41079 35281 37654 43044 42076 30686 27124 29225 22440 27590 25057 23386 19847 12849
is_linear=0
shrinkage=0.05


Tree=6
num_leaves=31
num_cat=0
split_feature=1 1 1 2 2 2 2 1 1 13 19 13 2 13 14 13 13 19 14 13 14 19 19 2 19 2 2 2 19 19
split_gain=4.35927e+07 6.68722e+06 4.0512e+06 1.91958e+06 1.759e+06 1.55488e+06 1.48685e+06 688350 628694 581940 487828 434563 374908 365852 342960 324188 316701 267041 263622 258536 207337 206724 202673 183750 157052 149324 147033 111320 103339 101085
threshold=3.6050000000000004 5.5050000000000008 1.9850000000000001 70.750000000000014 76.65000000000002 79.850000000000009 73.350000000000009 6.7550000000000008 6.6650000000000009 1.0000000180025095e-35 1.0000000180025095e-35 1.0000000180025095e-35 50.95000000000001 1.0000000180025095e-35 1.0000000180025095e-35 1.0000000180025095e-35 1.0000000180025095e-35 1.0000000180025095e-35 1.0000000180025095e-35 1.0000000180025095e-35 1.0000000180025095e-35 1.0000000180025095e-35 1.0000000180025095e-35 92.15000000000002 1.0000000180025095e-35 56.95000000000001 58.95000000000001 91.950000000000017 1.0000000180025095e-35 1.0000000180025095e-35
decision_type=2 2 2 2 2 2 2 2 2 2 2 2 2 2 2 2 2 2 2 2 2 2 2 2 2 2 2 2 2 2
left_child=2 5 4 8 9 10 11 16 20 12 14 21 -1 22 -2 24 -5 -10 23 -9 -3 -4 -8 -6 -7 -11 -12 -15 -17 -13
right_child=1 3 6 7 18 15 13 19 17 25 26 29 -14 27 -16 28 -18 -19 -20 -21 -22 -23 -24 -25 -26 -27 -28 -29 -30 -31
leaf_value=-1.1309950900354708 0.16809035361948976 0.35448458911389907 -0.46416410572700412 0.53819397152447024 -0.46563526118470666 0.34454566826849847 -0.07795171046791094 0.83088398767081351 0.66165704367639011 -0.77453397591680895 -0.33945081941567512 -0.15597700067897069 -0.84706574588531525 0.035318093921081185 -0.12217981693643271 0.63003802624717586 0.81906876839501896 0.38427424381876019 -0.61969975637967567 1.0758768173030802 0.074656363158542502 -0.71188943356966361 -0.33700383664826722 -0.21350940936999407 0.095761790997513418 -0.52515191988711418 -0.084582675969947951 0.32434411838233512 0.34688448492475682 -0.4147382002167011
leaf_weight=16898 32761 20600 23022 27526 20544 19942 21391 30881 25771 11168 10624 10834 37268 10869 14761 11066 15795 13081 17283 16534 9754 13279 11669 11148 9303 12978 12108 4804 4546 5792
leaf_count=16898 32761 20600 23022 27526 20544 19942 21391 30881 25771 11168 10624 10834 37268 10869 14761 11066 15795 13081 17283 16534 9754 13279 11669 11148 9303 12978 12108 4804 4546 5792
internal_value=0 0.424249 -0.509686 0.633401 -0.697651 0.133641 -0.274337 0.784679 0.435061 -0.84464 -0.013197 -0.457823 -0.935642 -0.0750609 0.0779284 0.363616 0.640602 0.568266 -0.462613 0.916315 0.264564 -0.554783 -0.169388 -0.376947 0.265406 -0.640496 -0.203698 0.123909 0.547588 -0.246122
internal_weight=0 275053 228947 159942 127287 115111 101660 90736 69206 78312 70254 52927 54166 48733 47522 44857 43321 38852 48975 47415 30354 36301 33060 31692 29245 24146 22732 15673 15612 16626
internal_count=504000 275053 228947 159942 127287 115111 101660 90736 69206 78312 70254 52927 54166 48733 47522 44857 43321 38852 48975 47415 30354 36301 33060 31692 29245 24146 22732 15673 15612 16626
is_linear=0
shrinkage=0.05


Tree=7
num_leaves=31
num_cat=0
split_feature=1 1 1 2 2 2 2 2 13 19 14 14 1 19 13 1 13 14 2 13 19 1 14 19 1 2 14 14 2 1
split_gain=3.94771e+07 5.52681e+06 4.24095e+06 1.8715e+06 1.82572e+06 1.45554e+06 1.04623e+06 649196 519891 514546 501931 342116 341666 338839 336014 297749 289608 272710 271653 257482 241760 191387 183058 171082 166178 160866 156277 95227.4 91196.6 90281.2
threshold=4.0850000000000009 2.3050000000000002 6.4850000000000012 78.950000000000017 73.350000000000009 80.65000000000002 77.15000000000002 56.95000000000001 1.0000000180025095e-35 1.0000000180025095e-35 1.0000000180025095e-35 1.0000000180025095e-35 0.82500000000000007 1.0000000180025095e-35 1.0000000180025095e-35 5.2550000000000008 1.0000000180025095e-35 1.0000000180025095e-35 59.650000000000013 1.0000000180025095e-35 1.0000000180025095e-35 5.2550000000000008 1.0000000180025095e-35 1.0000000180025095e-35 4.995000000000001 56.95000000000001 1.0000000180025095e-35 1.0000000180025095e-35 53.050000000000004 3.0350000000000006
decision_type=2 2 2 2 2 2 2 2 2 2 2 2 2 2 2 2 2 2 2 2 2 2 2 2 2 2 2 2 2 2
left_child=1 3 4 7 9 10 13 16 15 14 18 -9 27 19 -2 -6 -1 23 -3 -4 26 -10 -14 -7 -11 -12 -8 -5 -15 -19
right_child=2 5 6 12 8 17 20 11 21 24 25 -13 22 28 -16 -17 -18 29 -20 -21 -22 -23 -24 -25 -26 -27 -28 -29 -30 -31
leaf_value=-0.98553854876757474 0.098817281323470368 -0.33570707912586539 0.54217778363070646 -0.47405612600830305 0.2280783162578465 0.27350933262055405 1.0374224391812534 -0.54732188361718614 0.49547087044167937 -0.24073843745273266 -0.63253101813934842 -0.81120235457505885 -0.19643354975910787 0.20071789336271287 0.37080048599391985 0.4778434939738393 -0.702848816601226 -0.24126405475950011 -0.090135487850909204 0.8232133732902327 0.71310282621479582 0.7639712425412496 -0.44544168684632157 -0.0061140711201054026 0.027575292564103154 -0.37527899773962775 0.79882444343833303 -0.70976691407109527 0.45078898050539662 0.015163350633985551
leaf_weight=30816 30884 20030 22038 12933 22582 16775 21403 34103 12704 9952 9841 19197 20513 5196 17959 25302 12833 5939 25725 12933 14313 13897 11529 8117 13735 15888 10102 6408 12220 8133
leaf_count=30816 30884 20030 22038 12933 22582 16775 21403 34103 12704 9952 9841 19197 20513 5196 17959 25302 12833 5939 25725 12933 14313 13897 11529 8117 13735 15888 10102 6408 12220 8133
internal_value=0 -0.430765 0.454585 -0.630155 0.284639 -0.162983 0.708997 -0.759451 0.458512 0.10608 -0.296991 -0.642363 -0.3862 0.556373 0.198822 0.360055 -0.902427 0.08287 -0.197638 0.646111 0.883503 0.635742 -0.286029 0.182327 -0.0851557 -0.473674 0.960917 -0.552151 0.376181 -0.0930602
internal_weight=0 258780 245220 148332 147015 110448 98205 96949 74485 72530 71484 53300 51383 52387 48843 47884 43649 38964 45755 34971 45818 26601 32042 24892 23687 25729 31505 19341 17416 14072
internal_count=504000 258780 245220 148332 147015 110448 98205 96949 74485 72530 71484 53300 51383 52387 48843 47884 43649 38964 45755 34971 45818 26601 32042 24892 23687 25729 31505 19341 17416 14072
is_linear=0
shrinkage=0.05


Tree=8
num_leaves=31
num_cat=0
split_feature=1 1 1 2 2 2 2 1 13 13 14 3 1 2 14 19 19 19 19 19 19 13 14 14 14 19 14 19 3 19
split_gain=3.57212e+07 6.27252e+06 2.78708e+06 1.72277e+06 1.37755e+06 1.32992e+06 1.23563e+06 821494 513172 459294 429916 398840 351484 308909 255206 242245 239358 224088 223538 211705 166020 160884 156957 156097 154013 152842 144718 128507 93238.7 68551.6
threshold=3.3650000000000007 5.3650000000000011 1.6450000000000002 62.050000000000004 65.65000000000002 80.450000000000017 72.65000000000002 7.1550000000000011 1.0000000180025095e-35 1.0000000180025095e-35 1.0000000180025095e-35 6.9500000000000011 6.6650000000000009 56.95000000000001 1.0000000180025095e-35 1.0000000180025095e-35 1.0000000180025095e-35 1.0000000180025095e-35 1.0000000180025095e-35 1.0000000180025095e-35 1.0000000180025095e-35 1.0000000180025095e-35 1.0000000180025095e-35 1.0000000180025095e-35 1.0000000180025095e-35 1.0000000180025095e-35 1.0000000180025095e-35 1.0000000180025095e-35 6.9500000000000011 1.0000000180025095e-35
decision_type=2 2 2 2 2 2 2 2 2 2 2 2 2 2 2 2 2 2 2 2 2 2 2 2 2 2 2 2 2 2
left_child=2 4 6 12 14 8 11 10 13 16 -5 19 26 -4 25 21 -6 -9 22 -1 -11 -8 -7 -13 -14 -2 -3 -10 -17 -16
right_child=1 3 5 7 9 18 15 17 27 20 -12 23 24 -15 29 28 -18 -19 -20 -21 -22 -23 -24 -25 -26 -27 -28 -29 -30 -31
leaf_value=-0.84645554377287879 0.029000360375713897 0.25227191736918619 -0.6756756603099463 0.64608728518679548 0.20419136045901209 0.12000890333979138 -0.47669051619190494 0.91317548805941051 -0.14965337396046294 0.46898054793542754 0.39399061979031086 -0.60429941544451204 0.52108904766781461 -0.4219784925016723 -0.22863502226829741 -0.76112763793870286 -0.030699315933189066 0.66576000934766277 -0.2372026026547053 -1.1216743246714167 0.19617473456566434 -0.23411355047191221 -0.14401282527705161 -0.84711257150453112 0.2540509215276372 -0.21119263030357471 -0.017354525061530537 -0.39666008116802876 -0.52295024607080121 -0.46032342749634858
leaf_weight=18171 20096 14886 19843 52604 33570 15501 21172 29877 14865 18423 24925 18563 16848 30353 9414 7773 16022 13193 12327 11353 7998 10094 8839 10287 7946 9879 7476 8154 8717 4831
leaf_count=18171 20096 14886 19843 52604 33570 15501 21172 29877 14865 18423 24925 18563 16848 30353 9414 7773 16022 13193 12327 11353 7998 10094 8839 10287 7946 9879 7476 8154 8717 4831
internal_value=0 0.36456 -0.486033 0.562111 0.0889282 -0.309526 -0.66878 0.662305 -0.432626 0.218014 0.56504 -0.823092 0.305869 -0.522268 -0.132966 -0.480158 0.128304 0.837388 -0.0637267 -0.952287 0.386398 -0.398376 0.0241302 -0.690879 0.435508 -0.0501612 0.162131 -0.23715 -0.635221 -0.307209
internal_weight=0 287988 216012 167755 120233 109882 106130 120599 73215 76013 77529 58374 47156 50196 44220 47756 49592 43070 36667 29524 26421 31266 24340 28850 24794 29975 22362 23019 16490 14245
internal_count=504000 287988 216012 167755 120233 109882 106130 120599 73215 76013 77529 58374 47156 50196 44220 47756 49592 43070 36667 29524 26421 31266 24340 28850 24794 29975 22362 23019 16490 14245
is_linear=0
shrinkage=0.05


Tree=9
num_leaves=31
num_cat=0
split_feature=1 1 1 2 2 2 2 1 19 14 14 14 2 1 14 19 19 19 1 3 14 19 13 3 14 1 19 19 19 19
split_gain=3.23025e+07 4.52993e+06 3.47306e+06 1.56278e+06 1.531e+06 1.2036e+06 904964 558810 508342 423289 386738 344850 326008 324475 282801 260229 257071 246457 235398 212916 181735 161252 153439 134201 132781 118552 104336 103733 90038.3 59528
threshold=4.0850000000000009 2.3050000000000002 6.4850000000000012 60.550000000000004 77.950000000000017 80.65000000000002 80.950000000000017 0.82500000000000007 1.0000000180025095e-35 1.0000000180025095e-35 1.0000000180025095e-35 1.0000000180025095e-35 50.95000000000001 5.2550000000000008 1.0000000180025095e-35 1.0000000180025095e-35 1.0000000180025095e-35 1.0000000180025095e-35 3.0350000000000006 6.9500000000000011 1.0000000180025095e-35 1.0000000180025095e-35 1.0000000180025095e-35 7.1500000000000012 1.0000000180025095e-35 0.57500000000000007 1.0000000180025095e-35 1.0000000180025095e-35 1.0000000180025095e-35 1.0000000180025095e-35
decision_type=2 2 2 2 2 2 2 2 2 2 2 2 2 2 2 2 2 2 2 2 2 2 2 2 2 2 2 2 2 2
left_child=1 3 4 14 8 9 12 19 13 17 15 -9 -4 -2 21 -6 -14 -3 28 -5 26 -1 -10 -11 -20 -16 -8 -12 -7 -22
right_child=2 5 6 7 10 18 20 11 22 23 27 -13 16 -15 25 -17 -18 -19 24 -21 29 -23 -24 -25 -26 -27 -28 -29 -30 -31
leaf_value=-0.61549863134167115 0.081470777314793352 -0.092296705790354761 0.28102884222141017 -0.73059190235815108 0.61138963342180741 0.013235479854265823 0.97049763557084856 -0.26573953997379574 -0.15092068939942649 -0.53912126511188763 0.34290236600705787 -0.51521976036921158 0.65740377235659764 0.32195699156990187 -1.1442170004691055 0.34703150580734426 0.4107197284773258 -0.33525087432965095 0.26245525707569739 -0.48781448558773061 0.7451910878935144 -0.8459445536179353 0.098239380077332628 -0.310355880954644 0.012632243547418365 -0.8660568246679281 0.75385086932045564 0.10590947961928565 -0.23984308356660958 0.5081243979365746
leaf_weight=20727 28067 29643 11582 17530 29287 10058 18227 38054 17402 13607 14136 21779 32245 28038 5216 13647 15705 16112 15371 18627 8631 11978 9581 12122 8133 14421 7995 6857 5402 3820
leaf_count=20727 28067 29643 11582 17530 29287 10058 18227 38054 17402 13607 14136 21779 32245 28038 5216 13647 15705 16112 15371 18627 8631 11978 9581 12122 8133 14421 7995 6857 5402 3820
internal_value=0 -0.389659 0.411207 -0.570174 0.257414 -0.147228 0.641437 -0.45033 0.115884 -0.269088 0.441366 -0.356549 0.519103 0.201652 -0.789955 0.527361 0.576608 -0.17785 0.0763378 -0.60552 0.829754 -0.699898 -0.0624501 -0.43134 0.17601 -0.939942 0.904443 0.265493 -0.0751947 0.672458
internal_weight=0 258780 245220 148332 147015 110448 98205 95990 83088 71484 63927 59833 59532 56105 52342 42934 47950 45755 38964 36157 38673 32705 26983 25729 23504 19637 26222 20993 15460 12451
internal_count=504000 258780 245220 148332 147015 110448 98205 95990 83088 71484 63927 59833 59532 56105 52342 42934 47950 45755 38964 36157 38673 32705 26983 25729 23504 19637 26222 20993 15460 12451
is_linear=0
shrinkage=0.05


Tree=10
num_leaves=31
num_cat=0
split_feature=1 1 1 2 2 2 2 3 13 13 14 19 19 1 2 19 13 14 2 19 13 19 3 1 19 19 2 13 19 19
split_gain=2.92001e+07 4.49499e+06 2.81916e+06 1.49396e+06 1.32931e+06 1.18099e+06 816730 561214 504657 434781 313739 307056 279473 264451 248276 246383 244269 228989 223113 221617 167429 145650 142953 141380 141346 95767.8 94228.9 77188.7 75186.1 70187.9
threshold=4.2550000000000008 2.3550000000000004 6.4850000000000012 80.450000000000017 62.050000000000004 64.950000000000017 80.950000000000017 6.9500000000000011 1.0000000180025095e-35 1.0000000180025095e-35 1.0000000180025095e-35 1.0000000180025095e-35 1.0000000180025095e-35 0.82500000000000007 56.95000000000001 1.0000000180025095e-35 1.0000000180025095e-35 1.0000000180025095e-35 85.050000000000011 1.0000000180025095e-35 1.0000000180025095e-35 1.0000000180025095e-35 7.3500000000000005 4.995000000000001 1.0000000180025095e-35 1.0000000180025095e-35 57.650000000000013 1.0000000180025095e-35 1.0000000180025095e-35 1.0000000180025095e-35
decision_type=2 2 2 2 2 2 2 2 2 2 2 2 2 2 2 2 2 2 2 2 2 2 2 2 2 2 2 2 2 2
left_child=1 3 4 7 16 17 10 11 12 15 19 -1 -6 27 -9 -7 23 22 -10 -4 25 -15 -3 -2 -11 -8 -12 -5 -18 -19
right_child=2 5 6 13 8 9 20 14 18 24 26 -13 -14 21 -16 -17 28 29 -20 -21 -22 -23 -24 -25 -26 -27 -28 -29 -30 -31
leaf_value=-0.66854523297016388 -0.21252105194390758 -0.35158649506615031 0.65076966479721243 -0.53316050750747024 0.34930704799236401 -0.011605747606206406 0.77752917011597422 -0.66004030692539739 0.40373487100337435 0.24852251747730794 0.17316238602322534 -0.92124600863428174 0.12160095615074458 -0.14224836635779003 -0.43668307449541222 -0.24632092155731644 0.26874412369629147 -0.4144292630249341 0.65963253793812093 0.40563711110031453 0.93016018452989424 -0.37517903838194061 -0.11991326027364319 0.023125591973591018 -0.0058787430087775816 0.56675228342141692 0.40849248103938385 -0.31018527503213578 0.029348245621061992 -0.64087931501882967
leaf_weight=31806 10054 15204 27618 12142 41675 33034 17331 21343 19763 16658 6850 19325 19914 20290 29831 16901 9842 9823 14970 13841 13521 10028 11847 17348 8122 7821 11223 5705 4919 5251
leaf_count=31806 10054 15204 27618 12142 41675 33034 17331 21343 19763 16658 6850 19325 19914 20290 29831 16901 9842 9823 14970 13841 13521 10028 11847 17348 8122 7821 11223 5705 4919 5251
internal_value=0 -0.35812 0.40445 -0.538795 0.259136 -0.125442 0.609365 -0.646897 0.361627 -0.00608062 0.493147 -0.764054 0.275681 -0.309182 -0.529838 -0.0910474 0.0249944 -0.337147 0.514027 0.568933 0.788266 -0.219293 -0.250125 -0.0633349 0.165139 0.711988 0.319298 -0.461884 0.188967 -0.493313
internal_weight=0 267310 236690 150470 138485 116840 98205 102305 96322 74715 59532 51131 61589 48165 51174 49935 42163 42125 34733 41459 38673 30318 27051 27402 24780 25152 18073 17847 14761 15074
internal_count=504000 267310 236690 150470 138485 116840 98205 102305 96322 74715 59532 51131 61589 48165 51174 49935 42163 42125 34733 41459 38673 30318 27051 27402 24780 25152 18073 17847 14761 15074
is_linear=0
shrinkage=0.05


Tree=11
num_leaves=31
num_cat=0
split_feature=1 1 2 2 1 2 1 1 13 14 13 19 2 1 3 3 13 13 2 14 14 2 13 19 2 13 2 3 19 3
split_gain=2.64947e+07 4.7092e+06 2.14372e+06 1.34496e+06 1.18609e+06 1.04412e+06 780182 621158 400839 382080 356328 287470 269468 252416 238752 237687 221363 184587 171111 164879 135510 135156 128689 124563 122785 109822 108513 108269 100687 55580.4
threshold=3.3650000000000007 5.3650000000000011 65.250000000000014 62.050000000000004 1.4750000000000003 61.750000000000007 1.6450000000000002 7.1550000000000011 1.0000000180025095e-35 1.0000000180025095e-35 1.0000000180025095e-35 1.0000000180025095e-35 87.950000000000017 6.7950000000000008 6.8500000000000005 6.9500000000000011 1.0000000180025095e-35 1.0000000180025095e-35 84.550000000000011 1.0000000180025095e-35 1.0000000180025095e-35 91.950000000000017 1.0000000180025095e-35 1.0000000180025095e-35 85.950000000000017 1.0000000180025095e-35 85.250000000000014 7.0500000000000007 1.0000000180025095e-35 7.5500000000000007
decision_type=2 2 2 2 2 2 2 2 2 2 2 2 2 2 2 2 2 2 2 2 2 2 2 2 2 2 2 2 2 2
left_child=2 5 6 13 11 17 14 10 15 12 -5 19 -7 20 22 -6 23 27 -9 -4 -3 -10 -1 -8 -11 -15 -13 -2 -16 -19
right_child=1 3 4 7 8 9 16 18 21 24 -12 26 -14 25 28 -17 -18 29 -20 -21 -22 -23 -24 -25 -26 -27 -28 -29 -30 -31
leaf_value=-0.9366017763515071 -0.32310573588268832 0.23250416181571476 -0.29667631262532351 0.40841141059397396 -0.35057954669244928 0.16662082202277351 -0.44939828220859879 0.63418962184053873 -0.048065659914694914 -0.074470278095659509 0.63150851318282941 -0.71639567847014207 0.39566286815946294 0.29820234132728923 -0.55719176344534327 -0.12820293305741493 -0.28295644708969497 -0.077800368665309372 0.83419640430282471 -0.52166959950386871 -0.013852942284213687 0.23656518147124489 -0.67514596214355893 -0.66023572602298652 0.14036156882864448 0.53048419798137902 -0.47687580700403276 -0.11420730950933861 -0.77424714902931779 0.13267678977418063
leaf_weight=16528 12872 16741 23011 49492 22964 35399 18708 23318 17897 15069 28037 11228 20152 14069 14880 25205 13267 7443 19752 12602 8374 5438 6580 11199 11906 7972 8169 11971 8336 5421
leaf_count=16528 12872 16741 23011 49492 22964 35399 18708 23318 17897 15069 28037 11228 20152 14069 14880 25205 13267 7443 19752 12602 8374 5438 6580 11199 11906 7972 8169 11971 8336 5421
internal_value=0 0.313968 -0.418584 0.485139 -0.286103 0.0751419 -0.605858 0.573668 -0.151822 0.17474 0.489091 -0.460647 0.249709 0.258732 -0.748376 -0.234218 -0.452942 -0.142839 0.725913 -0.376292 0.150362 0.0182649 -0.862152 -0.528349 0.0203504 0.382216 -0.615522 -0.222445 -0.635128 0.0108965
internal_weight=0 287988 216012 167755 126514 120233 89498 120599 71504 82526 77529 55010 55551 47156 46324 48169 43174 37707 43070 35613 25115 23335 23108 29907 26975 22041 19397 24843 23216 12864
internal_count=504000 287988 216012 167755 126514 120233 89498 120599 71504 82526 77529 55010 55551 47156 46324 48169 43174 37707 43070 35613 25115 23335 23108 29907 26975 22041 19397 24843 23216 12864
is_linear=0
shrinkage=0.05


Tree=12
num_leaves=31
num_cat=0
split_feature=1 1 2 2 2 1 1 1 14 13 13 14 14 19 19 14 2 13 3 2 19 1 19 19 3 19 2 19 19 13
split_gain=2.39234e+07 4.53426e+06 1.84595e+06 1.29291e+06 971868 895470 736558 522449 368330 342949 322531 270354 255418 248831 246400 223177 193943 192538 191379 188855 167499 147664 144241 134954 122128 109157 103005 83566.1 81820.2 81624.9
threshold=3.2750000000000004 5.2550000000000008 73.350000000000009 77.350000000000009 65.65000000000002 1.3650000000000004 1.4750000000000003 6.7550000000000008 1.0000000180025095e-35 1.0000000180025095e-35 1.0000000180025095e-35 1.0000000180025095e-35 1.0000000180025095e-35 1.0000000180025095e-35 1.0000000180025095e-35 1.0000000180025095e-35 50.650000000000013 1.0000000180025095e-35 6.9500000000000011 86.950000000000017 1.0000000180025095e-35 6.4850000000000012 1.0000000180025095e-35 1.0000000180025095e-35 7.0500000000000007 1.0000000180025095e-35 92.15000000000002 1.0000000180025095e-35 1.0000000180025095e-35 1.0000000180025095e-35
decision_type=2 2 2 2 2 2 2 2 2 2 2 2 2 2 2 2 2 2 2 2 2 2 2 2 2 2 2 2 2 2
left_child=2 4 5 7 17 11 18 14 13 19 16 22 20 -5 -3 -9 -7 24 29 -6 -8 -10 -1 -11 -2 -13 -20 -14 -12 -4
right_child=1 3 6 8 9 10 12 15 21 23 28 25 27 -15 -16 -17 -18 -19 26 -21 -22 -23 -24 -25 -26 -27 -28 -29 -30 -31
leaf_value=-0.53067741939282564 -0.30419608007761534 0.29189437167476756 -0.57789671233564288 0.74935688433141145 0.0025640751387048908 -0.65118323434286041 0.046423042768172655 0.52318628058111194 0.31242779563977685 0.38304991043833508 -0.18047899148436414 -0.75551413679522605 -0.19027460443211897 0.51892569225631324 0.049919264909333655 0.28125470041730621 -0.42501740145589539 0.013832868813101107 -0.37379274515528282 0.1983369811714063 -0.18924054121192019 0.55271800799458726 -0.75332503638187587 0.1388807791567899 -0.099384267304195459 -1.0024227504349064 -0.14672788506208123 -0.41207045898321071 -0.39188574536460608 -0.3596350644250601
leaf_weight=19965 15078 32234 13990 36981 28628 13778 21650 31510 11393 18552 13126 11535 12459 17148 15618 13667 30379 15272 15225 21623 11569 14570 11444 8143 14071 7315 7433 6443 7027 6174
leaf_count=19965 15078 32234 13990 36981 28628 13778 21650 31510 11393 18552 13126 11535 12459 17148 15618 13667 30379 15272 15225 21623 11569 14570 11444 8143 14071 7315 7433 6443 7027 6174
internal_value=0 0.290561 -0.408409 0.454833 0.0562381 -0.543515 -0.245375 0.328049 0.602096 0.163742 -0.41994 -0.701638 -0.119143 0.676357 0.212918 0.449997 -0.495586 -0.12998 -0.399019 0.0868051 -0.0356502 0.447275 -0.6118 0.308569 -0.205328 -0.85133 -0.299304 -0.265877 -0.254193 -0.511067
internal_weight=0 294488 209512 173121 121367 114569 94943 93029 80092 76946 64310 50259 52121 54129 47852 45177 44157 44421 42822 50251 33219 25963 31409 26695 29149 18850 22658 18902 20153 20164
internal_count=504000 294488 209512 173121 121367 114569 94943 93029 80092 76946 64310 50259 52121 54129 47852 45177 44157 44421 42822 50251 33219 25963 31409 26695 29149 18850 22658 18902 20153 20164
is_linear=0
shrinkage=0.05


Tree=13
num_leaves=31
num_cat=0
split_feature=1 1 1 2 2 2 2 13 19 1 3 19 13 19 1 13 1 13 14 3 19 14 3 19 3 13 14 19 3 3
split_gain=2.16799e+07 3.38581e+06 2.10165e+06 1.29266e+06 995598 814898 671413 539661 392719 374034 301976 275691 257844 252720 245151 197872 172637 166760 156862 153421 148536 144348 130076 122919 105262 92609.3 85745.8 68933.3 66505.3 47566.9
threshold=4.2550000000000008 2.6450000000000005 6.4650000000000007 80.250000000000014 80.250000000000014 80.950000000000017 62.050000000000004 1.0000000180025095e-35 1.0000000180025095e-35 0.75500000000000012 6.9500000000000011 1.0000000180025095e-35 1.0000000180025095e-35 1.0000000180025095e-35 0.82500000000000007 1.0000000180025095e-35 0.82500000000000007 1.0000000180025095e-35 1.0000000180025095e-35 6.9500000000000011 1.0000000180025095e-35 1.0000000180025095e-35 6.8500000000000005 1.0000000180025095e-35 6.8500000000000005 1.0000000180025095e-35 1.0000000180025095e-35 1.0000000180025095e-35 6.8500000000000005 7.1500000000000012
decision_type=2 2 2 2 2 2 2 2 2 2 2 2 2 2 2 2 2 2 2 2 2 2 2 2 2 2 2 2 2 2
left_child=1 3 4 7 8 10 23 9 12 -1 20 15 -2 17 27 -8 -9 -6 24 -16 -3 -12 -10 25 -7 -4 -13 -5 -15 -20
right_child=2 5 6 14 13 18 11 16 22 -11 21 26 -14 28 19 -17 -18 -19 29 -21 -22 -23 -24 -25 -26 -27 -28 -29 -30 -31
leaf_value=-0.78159046965237711 0.10688540588661662 -0.21542998921547218 0.30601946922793583 -0.32796586799658384 0.38174020115951618 0.070129418124010273 0.59325533868828872 -0.5349089968266979 -0.16408629997480018 -0.54382039928318937 -0.0037217577023550027 0.52341361872271297 0.33116135979630368 0.12019566176249946 -0.28242445773394598 0.80056349359686563 -0.29897164527061498 0.60268763589239971 -0.12736303587121134 -0.077574369951820557 -0.44251223753002872 -0.22220297238345552 0.055846391564560317 0.16851327582720524 0.28766537609396298 0.54274707596374083 0.31211187807111207 -0.53430482990602823 0.31748602917303959 0.069274583684263466
leaf_weight=23895 35333 20994 11609 11804 23829 9793 31322 11761 12307 53736 22066 15665 20109 7710 17160 18198 22752 13310 6093 19557 10961 11500 14817 9566 12868 6414 6923 6160 9578 6210
leaf_count=23895 35333 20994 11609 11804 23829 9793 31322 11761 12307 53736 22066 15665 20109 7710 17160 18198 22752 13310 6093 19557 10961 11500 14817 9566 12868 6414 6923 6160 9578 6210
internal_value=0 -0.308579 0.348499 -0.446685 0.221397 -0.0792949 0.523149 -0.543873 0.111959 -0.617007 -0.183309 0.603409 0.188231 0.387415 -0.247365 0.669439 -0.379372 0.460924 0.115623 -0.173313 -0.293322 -0.0785753 -0.0439439 0.313377 0.193657 0.390266 0.458652 -0.398721 0.2295 -0.0281092
internal_weight=0 267310 236690 166825 136993 100485 99697 112144 82566 77631 65521 72108 55442 54427 54681 49520 34513 37139 34964 36717 31955 33566 27124 27589 22661 18023 22588 17964 17288 12303
internal_count=504000 267310 236690 166825 136993 100485 99697 112144 82566 77631 65521 72108 55442 54427 54681 49520 34513 37139 34964 36717 31955 33566 27124 27589 22661 18023 22588 17964 17288 12303
is_linear=0
shrinkage=0.05


Tree=14
num_leaves=31
num_cat=0
split_feature=1 1 2 2 1 2 19 1 19 3 2 13 19 3 3 19 13 19 19 13 14 19 3 14 19 19 14 2 3 3
split_gain=1.95995e+07 3.61286e+06 1.55011e+06 1.22178e+06 970720 828509 521091 447339 365373 332328 323194 254555 243673 222487 190920 183080 171657 153830 151672 139977 133066 111335 104316 100149 98530.9 95612.1 88637.6 83925.3 51275.2 51195.7
threshold=4.5050000000000008 2.6450000000000005 62.050000000000004 56.95000000000001 6.4850000000000012 62.050000000000004 1.0000000180025095e-35 6.1450000000000005 1.0000000180025095e-35 6.9500000000000011 86.950000000000017 1.0000000180025095e-35 1.0000000180025095e-35 7.0500000000000007 6.3500000000000005 1.0000000180025095e-35 1.0000000180025095e-35 1.0000000180025095e-35 1.0000000180025095e-35 1.0000000180025095e-35 1.0000000180025095e-35 1.0000000180025095e-35 6.8500000000000005 1.0000000180025095e-35 1.0000000180025095e-35 1.0000000180025095e-35 1.0000000180025095e-35 84.550000000000011 7.1500000000000012 7.2500000000000009
decision_type=2 2 2 2 2 2 2 2 2 2 2 2 2 2 2 2 2 2 2 2 2 2 2 2 2 2 2 2 2 2
left_child=1 3 7 13 8 18 10 19 11 17 -5 -4 16 21 -8 -11 -6 -7 23 25 24 -1 -10 -3 -9 -2 -15 -14 -20 -21
right_child=2 5 4 6 12 9 14 20 22 15 -12 -13 27 26 -16 -17 -18 -19 28 29 -22 -23 -24 -25 -26 -27 -28 -29 -30 -31
leaf_value=-0.65564022009773859 0.011386677629229796 -0.11103819762845671 0.31581337661051234 -0.3302370224350335 0.56617244688982804 -0.010111407633560283 -0.61374866267356909 0.4207835862647259 0.061959319282384101 0.19685180190906218 -0.10933958503379854 0.53363663903255909 0.35147855115646048 -0.44774034868484613 -0.39454583032863755 -0.021345871877636691 0.76072197974712508 -0.22732609900215872 -0.49580718035887189 0.051126547283786454 0.13156291741728629 -0.87043922900989679 0.26013940805509916 -0.32446418549321437 0.20097118778090459 -0.21832533792121686 -0.65341536522014554 0.54673577819656627 -0.29193606078046386 0.26616445930463023
leaf_weight=15708 13397 15695 36784 52993 30917 24893 16371 14682 11933 28465 24084 21110 12415 14371 25261 14516 17904 12119 6627 5744 10895 9794 14970 8459 7810 6844 8243 9885 5769 5342
leaf_count=15708 13397 15695 36784 52993 30917 24893 16371 14682 11933 28465 24084 21110 12415 14371 25261 14516 17904 12119 6627 5744 10895 9794 14970 8459 7810 6844 8243 9885 5769 5342
internal_value=0 -0.275129 0.353361 -0.424351 0.438743 -0.0615259 -0.338204 0.147646 0.324488 0.0285883 -0.261214 0.395239 0.57497 -0.636887 -0.480743 0.12316 0.637519 -0.081235 -0.258749 0.0119338 0.274985 -0.738133 0.172235 -0.185782 0.344457 -0.0662848 -0.522711 0.438031 -0.400927 0.154747
internal_weight=0 283368 220632 166825 155918 116543 118709 64714 84797 79993 77077 57894 71121 48116 41632 42981 48821 37012 36550 31327 33387 25502 26903 24154 22492 20241 22614 22300 12396 11086
internal_count=504000 283368 220632 166825 155918 116543 118709 64714 84797 79993 77077 57894 71121 48116 41632 42981 48821 37012 36550 31327 33387 25502 26903 24154 22492 20241 22614 22300 12396 11086
is_linear=0
shrinkage=0.05


Tree=15
num_leaves=31
num_cat=0
split_feature=1 1 2 2 2 1 14 1 13 2 14 3 14 19 2 14 1 3 13 19 14 14 3 2 3 1 1 3 19 3
split_gain=1.77638e+07 3.62883e+06 1.37374e+06 1.05681e+06 814542 746267 482924 352921 335804 326830 307798 251491 231737 215914 206457 174296 162933 160491 119368 118478 116550 113058 109722 104588 93351.6 80114.4 74100.8 69641.9 64536.4 48576.2
threshold=3.1750000000000003 5.2550000000000008 60.550000000000004 84.550000000000011 80.950000000000017 1.3650000000000004 1.0000000180025095e-35 1.5750000000000004 1.0000000180025095e-35 50.95000000000001 1.0000000180025095e-35 6.9500000000000011 1.0000000180025095e-35 1.0000000180025095e-35 52.150000000000013 1.0000000180025095e-35 6.6650000000000009 6.8500000000000005 1.0000000180025095e-35 1.0000000180025095e-35 1.0000000180025095e-35 1.0000000180025095e-35 6.4500000000000011 91.950000000000017 7.1500000000000012 6.9150000000000009 0.085000000000000006 7.0500000000000007 1.0000000180025095e-35 6.4500000000000011
decision_type=2 2 2 2 2 2 2 2 2 2 2 2 2 2 2 2 2 2 2 2 2 2 2 2 2 2 2 2 2 2
left_child=2 4 7 6 10 11 9 17 13 -3 14 20 19 -7 -2 22 -8 26 27 -5 -4 -13 -6 -10 -12 -14 -1 -9 -19 -17
right_child=1 3 5 12 15 8 16 18 23 -11 24 21 25 -15 -16 29 -18 28 -20 -21 -22 -23 -24 -25 -26 -27 -28 -29 -30 -31
leaf_value=-1.0193402921712671 -0.13948581557037812 0.1625824237655222 -0.43768073590993262 0.69751576327618225 0.15888326551499404 -0.16410773178365123 0.047502457202696489 -0.56959134028416536 -0.066768998750096301 0.4232049141279709 -0.2868407014510081 -0.23510937553985223 0.33716114093107308 -0.37735775746175249 0.073931062682385737 -0.032819320651802812 0.259253014288303 -0.47507581241335117 -0.27720391701492514 0.50690204172208853 -0.6529395916261298 -0.43874729697141224 0.35005035780770144 0.18987843524812151 -0.096327263366872459 0.54831469674042888 -0.71672206241511915 -0.39246150223762277 -0.67165261626356509 0.14468275786711934
leaf_weight=2316 15948 14758 17387 26664 12383 33808 17870 11888 19690 65058 13648 19635 10919 18292 39153 6545 18478 11690 9755 11742 9851 10440 19058 4972 12158 7632 15984 10407 6495 9376
leaf_count=2316 15948 14758 17387 26664 12383 33808 17870 11888 19690 65058 13648 19635 10919 18292 39153 6545 18478 11690 9755 11742 9851 10440 19058 4972 12158 7632 15984 10407 6495 9376
internal_value=0 0.243382 -0.36204 0.392722 0.0418231 -0.268957 0.306219 -0.544141 -0.167028 0.375016 -0.0545793 -0.405474 0.569145 -0.238979 0.0121614 0.206504 0.155149 -0.650484 -0.423082 0.639239 -0.515532 -0.305799 0.274759 -0.0150274 -0.197084 0.424031 -0.755021 -0.48691 -0.545286 0.071713
internal_weight=0 301390 202610 173121 128269 134075 116164 68535 76762 79816 80907 57313 56957 52100 55101 47362 36348 36485 32050 38406 27238 30075 31441 24662 25806 18551 18300 22295 18185 15921
internal_count=504000 301390 202610 173121 128269 134075 116164 68535 76762 79816 80907 57313 56957 52100 55101 47362 36348 36485 32050 38406 27238 30075 31441 24662 25806 18551 18300 22295 18185 15921
is_linear=0
shrinkage=0.05


Tree=16
num_leaves=31
num_cat=0
split_feature=1 1 2 2 1 2 14 19 1 1 3 3 13 19 1 3 20 18 19 13 2 19 3 3 18 13 2 18 13 3
split_gain=1.60556e+07 2.9475e+06 1.30787e+06 986887 864602 734513 477677 360998 321786 282890 256334 232280 231909 219287 190897 177919 143241 142957 137352 123822 111223 110498 102450 90670.6 85930.2 80652.8 78627.9 62146.6 47741.6 46281.5
threshold=4.5050000000000008 2.5750000000000006 58.650000000000013 80.950000000000017 6.6650000000000009 71.450000000000017 1.0000000180025095e-35 1.0000000180025095e-35 6.6650000000000009 0.78500000000000014 6.4500000000000011 7.2500000000000009 1.0000000180025095e-35 1.0000000180025095e-35 0.82500000000000007 7.1500000000000012 1.0000000180025095e-35 1.0000000180025095e-35 1.0000000180025095e-35 1.0000000180025095e-35 84.050000000000011 1.0000000180025095e-35 6.8500000000000005 6.6500000000000012 1.0000000180025095e-35 1.0000000180025095e-35 92.450000000000017 1.0000000180025095e-35 1.0000000180025095e-35 6.7500000000000009
decision_type=2 2 2 2 2 2 2 2 2 2 2 2 2 2 2 2 2 2 2 2 2 2 2 2 2 2 2 2 2 2
left_child=1 3 8 6 7 13 9 10 18 -1 -4 20 17 16 27 -8 -3 -7 23 -16 -6 -13 -9 -2 -15 29 -14 -5 -20 -10
right_child=2 5 4 14 11 12 15 22 25 -11 -12 21 26 24 19 -17 -18 -19 28 -21 -22 -23 -24 -25 -26 -27 -28 -29 -30 -31
leaf_value=-0.53380064307103792 -0.02807336449072504 -0.018201876490828058 0.23779907995272229 -0.29021640373054569 0.35280158794755567 0.035799420823724469 -0.70180613519334889 0.049548353493058007 0.077545843270365081 -0.32135485038610667 0.43967763708232299 0.67395330864011904 0.13032476495147036 -0.27192879328849712 -0.20183188938681759 -0.49280498051209609 -0.21253425006084986 -0.19188622894451485 -0.19956192044654555 0.0042244508348251468 0.53536757276736746 0.48407533532491959 0.23344101414418122 0.17456435424855712 -0.52855527494963173 0.39239171300026277 0.34364907908908815 -0.51831147469415995 0.011049831272105537 0.26822497179162974
leaf_weight=23529 9756 18083 26179 13682 19461 33153 22414 13710 5483 46912 39373 24232 14930 15707 22959 18660 19937 8704 7549 10683 14602 11205 16923 12715 4117 7679 6078 3820 4181 7584
leaf_count=23529 9756 18083 26179 13682 19461 33153 22414 13710 5483 46912 39373 24232 14930 15707 22959 18660 19937 8704 7549 10683 14602 11205 16923 12715 4117 7679 6078 3820 4181 7584
internal_value=0 -0.249016 0.319823 -0.387932 0.389928 -0.0618227 -0.471338 0.292838 0.108432 -0.392317 0.359055 0.524297 0.0564882 -0.190403 -0.206073 -0.606856 -0.120106 -0.0115469 0.0141928 -0.136399 0.431063 0.613915 0.151139 0.0865872 -0.325224 0.26379 0.192043 -0.340001 -0.124492 0.188215
internal_weight=0 283368 220632 162659 165685 120709 111515 96185 54947 70441 65552 69500 62865 57844 51144 41074 38020 41857 34201 33642 34063 35437 30633 22471 19824 20746 21008 17502 11730 13067
internal_count=504000 283368 220632 162659 165685 120709 111515 96185 54947 70441 65552 69500 62865 57844 51144 41074 38020 41857 34201 33642 34063 35437 30633 22471 19824 20746 21008 17502 11730 13067
is_linear=0
shrinkage=0.05


Tree=17
num_leaves=31
num_cat=0
split_feature=1 1 2 2 2 1 3 18 17 3 13 1 3 14 2 14 19 2 19 2 19 1 19 19 3 20 3 20 1 19
split_gain=1.45485e+07 2.99436e+06 1.18904e+06 812186 784301 661736 381698 353906 359349 310205 275777 251073 242924 182622 175266 157365 141692 136902 131733 103911 100337 94836.8 93316.1 89747.3 86470.3 75449.3 64229.4 61866.7 48526.6 40692.7
threshold=3.1750000000000003 5.5050000000000008 56.95000000000001 84.250000000000014 85.450000000000017 1.3650000000000004 6.0500000000000007 1.0000000180025095e-35 1.0000000180025095e-35 6.9500000000000011 1.0000000180025095e-35 1.6450000000000002 6.3500000000000005 1.0000000180025095e-35 92.15000000000002 1.0000000180025095e-35 1.0000000180025095e-35 92.15000000000002 1.0000000180025095e-35 56.050000000000004 1.0000000180025095e-35 7.1550000000000011 1.0000000180025095e-35 1.0000000180025095e-35 6.6500000000000012 1.0000000180025095e-35 6.4500000000000011 1.0000000180025095e-35 0.18500000000000003 1.0000000180025095e-35
decision_type=2 2 2 2 2 2 2 2 2 2 2 2 2 2 2 2 2 2 2 2 2 2 2 2 2 2 2 2 2 2
left_child=2 4 11 6 7 12 19 8 -2 16 -8 18 22 21 -11 20 -7 -14 25 -3 -6 -5 -4 27 -9 -1 -15 -13 -20 -17
right_child=1 3 5 13 15 9 10 24 -10 14 -12 23 17 26 -16 29 -18 -19 28 -21 -22 -23 -24 -25 -26 -27 -28 -29 -30 -31
leaf_value=-0.43764207859698445 0.081286033024720206 0.010313572534317869 -0.42330688406925027 0.52739789096629508 0.36561895222634333 -0.19087600544092609 0.27810467186612053 -0.3320608628797278 -0.17024929592880497 -0.1157396949669985 0.47865026263523308 -0.22538798822307379 -0.34423228287026453 0.27028936305184192 0.13986888935248662 0.15760898840401025 -0.38818077488720332 -0.11020829221108311 -0.95696369288614747 0.20487952477697477 0.15966571626677814 0.69394693944848718 -0.62553167005070431 -0.52643258110265168 -0.12087878118955019 -0.6323895043227753 0.46913022072358679 -0.42333632430674922 -0.6979922484552783 -0.021747768712046096
leaf_weight=9837 61108 9725 15604 22045 19322 26050 46410 8674 18497 34857 27183 7396 29950 6510 8304 9629 13984 7897 2226 23312 8522 13960 8992 9335 10987 10059 10797 8465 9654 4709
leaf_count=9837 61108 9725 15604 22045 19322 26050 46410 8674 18497 34857 27183 7396 29950 6510 8304 9629 13984 7897 2226 23312 8522 13960 8992 9335 10987 10059 10797 8465 9654 4709
internal_value=0 0.220257 -0.327641 0.368466 0.0526703 -0.251882 0.288797 -0.0240794 0.0228393 -0.159547 0.35218 -0.521303 -0.374904 0.527813 -0.0665616 0.233284 -0.259795 -0.295402 -0.614769 0.147606 0.302584 0.591973 -0.497238 -0.403428 -0.214048 -0.536102 0.394337 -0.331033 -0.746517 0.0987032
internal_weight=0 301390 202610 159942 141448 145638 106630 99266 79605 83195 73593 56972 62443 53312 43161 42182 40034 37847 31776 33037 27844 36005 24596 25196 19661 19896 17307 15861 11880 14338
internal_count=504000 301390 202610 159942 141448 145638 106630 99266 79605 83195 73593 56972 62443 53312 43161 42182 40034 37847 31776 33037 27844 36005 24596 25196 19661 19896 17307 15861 11880 14338
is_linear=0
shrinkage=0.05


Tree=18
num_leaves=31
num_cat=0
split_feature=1 1 1 2 2 2 2 13 14 19 3 19 13 19 13 14 3 13 13 14 2 3 3 3 3 13 18 18 19 14
split_gain=1.31808e+07 2.07286e+06 1.3279e+06 742714 701008 656914 434772 355217 326198 318648 228435 218014 197524 190584 163961 162094 135149 134482 128718 124210 109284 107470 104915 92108 83935.7 77921.3 57600.1 52209.9 52179.3 50663.2
threshold=4.2550000000000008 1.9850000000000001 6.4850000000000012 80.950000000000017 85.050000000000011 56.95000000000001 75.550000000000011 1.0000000180025095e-35 1.0000000180025095e-35 1.0000000180025095e-35 6.9500000000000011 1.0000000180025095e-35 1.0000000180025095e-35 1.0000000180025095e-35 1.0000000180025095e-35 1.0000000180025095e-35 7.4500000000000011 1.0000000180025095e-35 1.0000000180025095e-35 1.0000000180025095e-35 54.850000000000001 6.5500000000000007 6.5500000000000007 7.1500000000000012 6.4500000000000011 1.0000000180025095e-35 1.0000000180025095e-35 1.0000000180025095e-35 1.0000000180025095e-35 1.0000000180025095e-35
decision_type=2 2 2 2 2 2 2 2 2 2 2 2 2 2 2 2 2 2 2 2 2 2 2 2 2 2 2 2 2 2
left_child=1 5 4 7 8 16 13 10 11 12 -3 -2 -7 17 23 21 25 -4 24 -11 -10 -5 -9 -6 -8 -1 -15 -16 -17 -18
right_child=2 3 6 15 14 9 18 22 20 19 -12 -13 -14 26 27 28 29 -19 -20 -21 -22 -23 -24 -25 -26 -27 -28 -29 -30 -31
leaf_value=-0.69492875496892947 0.22211859611298468 -0.35586028037986844 0.30159208799985682 0.0043362768043943671 0.17911366008652924 -0.30705271949439195 0.35194972192040097 -0.16049738743392528 -0.18120021572077913 -0.36784116343300705 -0.1640032942328305 0.026935033693337603 -0.1098037885779316 0.21938605004794939 0.5152238625721387 -0.011837596690452229 -0.37561049945979369 0.5088101204069394 0.63124767576772756 -0.57615009437056186 0.024367075446003694 0.19415408875351434 0.03021676926402482 0.35949676291523747 0.52250459620486189 -0.48935293069072777 -0.0094232730050501437 0.26775970752582551 -0.19786701760451175 -0.56679525217219284
leaf_weight=16496 44107 30869 21093 12364 14349 39117 11419 12349 9450 20448 31192 21175 18788 13295 12396 11527 9614 12452 16890 11009 20470 18788 17333 13964 19588 6397 3468 2574 5601 5418
leaf_count=16496 44107 30869 21093 12364 14349 39117 11419 12349 9450 20448 31192 21175 18788 13295 12396 11527 9614 12452 16890 11009 20470 18788 17333 13964 19588 6397 3468 2574 5601 5418
internal_value=0 -0.240607 0.271733 -0.107855 0.172003 -0.386641 0.41237 -0.191392 0.0961512 -0.312643 -0.259433 0.158808 -0.243053 0.309717 0.338841 0.0508839 -0.561001 0.378512 0.520189 -0.440743 -0.0405598 0.118817 -0.0491286 0.268079 0.459694 -0.637485 0.172049 0.472674 -0.0726708 -0.444519
internal_weight=0 267310 236690 140023 138485 127287 98205 91743 95202 89362 62061 65282 57905 50308 43283 48280 37925 33545 47897 31457 29920 31152 29682 28313 31007 22893 16763 14970 17128 15032
internal_count=504000 267310 236690 140023 138485 127287 98205 91743 95202 89362 62061 65282 57905 50308 43283 48280 37925 33545 47897 31457 29920 31152 29682 28313 31007 22893 16763 14970 17128 15032
is_linear=0
shrinkage=0.05


Tree=19
num_leaves=31
num_cat=0
split_feature=1 1 2 2 2 1 3 1 19 14 2 20 3 19 19 14 20 18 17 2 2 18 18 14 19 19 2 19 3 2
split_gain=1.19587e+07 2.17921e+06 1.11225e+06 672307 617215 603721 345553 345513 284109 280605 227240 211523 198848 187795 178728 154044 133150 118226 113876 112852 101032 98595.7 97418.3 94979.9 88717.9 78652.3 73609.1 60502.6 43879.4 37469.1
threshold=3.3650000000000007 5.5050000000000008 62.95000000000001 84.550000000000011 58.95000000000001 1.4450000000000001 6.3500000000000005 0.82500000000000007 1.0000000180025095e-35 1.0000000180025095e-35 50.95000000000001 1.0000000180025095e-35 6.9500000000000011 1.0000000180025095e-35 1.0000000180025095e-35 1.0000000180025095e-35 1.0000000180025095e-35 1.0000000180025095e-35 1.0000000180025095e-35 56.050000000000004 92.15000000000002 1.0000000180025095e-35 1.0000000180025095e-35 1.0000000180025095e-35 1.0000000180025095e-35 1.0000000180025095e-35 46.050000000000004 1.0000000180025095e-35 7.2500000000000009 50.95000000000001
decision_type=2 2 2 2 2 2 2 2 2 2 2 2 2 2 2 2 2 2 2 2 2 2 2 2 2 2 2 2 2 2
left_child=2 4 7 6 17 12 19 25 11 13 -8 -6 23 -7 16 24 -9 18 -2 -3 -11 -10 -14 -4 -5 28 -16 -17 -1 -27
right_child=1 3 5 15 8 9 10 14 21 20 -12 -13 22 -15 26 27 -18 -19 -20 -21 -22 -23 -24 -25 -26 29 -28 -29 -30 -31
leaf_value=-0.60612337901841029 -0.017769662505484281 0.011929257776657947 -0.34522930964446158 0.59225900684485999 0.27881627365923095 0.039005686660703073 0.14063423099141903 -0.1990336076693493 0.041802457692336509 -0.28134917175983548 0.37423177753281045 0.095695991325684654 -0.18077937860587462 -0.16389908274253065 -0.6394689671762287 0.42067568869842531 -0.38687673729066496 -0.29643163026903324 -0.25690343512204195 0.19848399599851752 -0.056525928436744366 -0.18982104537224978 -0.40091840318194738 -0.54068308223835815 0.42104412236308814 -0.83079225185766026 -0.4267372515200169 0.21764708636466815 -0.4250888656716682 -0.61427310809346691
leaf_weight=7531 21673 11452 17165 24644 30813 32509 12823 17557 23619 21656 55346 32301 23269 17565 5420 11653 20390 7473 6463 27750 6496 5704 6410 9744 10918 4029 16282 5356 6025 3964
leaf_count=7531 21673 11452 17165 24644 30813 32509 12823 17557 23619 21656 55346 32301 23269 17565 5420 11653 20390 7473 6463 27750 6496 5704 6410 9744 10918 4029 16282 5356 6025 3964
internal_value=0 0.210935 -0.281219 0.334 0.0572147 -0.193167 0.262269 -0.427412 0.125348 -0.103175 0.330291 0.185097 -0.317571 -0.0321694 -0.365419 0.480501 -0.299967 -0.119653 -0.0727001 0.143986 -0.229472 -0.00325366 -0.228324 -0.416005 0.539694 -0.599012 -0.479866 0.356744 -0.525662 -0.723413
internal_weight=0 287988 216012 159942 128046 134814 107371 81198 92437 78226 68169 63114 56588 50074 59649 52571 37947 35609 28136 39202 28152 29323 29679 26909 35562 21549 21702 17009 13556 7993
internal_count=504000 287988 216012 159942 128046 134814 107371 81198 92437 78226 68169 63114 56588 50074 59649 52571 37947 35609 28136 39202 28152 29323 29679 26909 35562 21549 21702 17009 13556 7993
is_linear=0
shrinkage=0.05


Tree=20
num_leaves=31
num_cat=0
split_feature=1 1 2 2 2 1 3 3 19 3 3 1 19 14 13 14 3 13 19 18 1 18 14 18 19 2 2 3 14 13
split_gain=1.0857e+07 2.21156e+06 872632 765334 586062 550966 403730 327209 241283 202051 195715 190958 164692 162092 156960 137551 120311 112036 111053 106861 102793 92685 91236.5 78639 64692.9 58202.9 54216.4 49785.9 42328.2 39391.6
threshold=4.6750000000000007 2.6450000000000005 58.650000000000013 80.950000000000017 71.450000000000017 7.1550000000000011 7.6500000000000012 7.2500000000000009 1.0000000180025095e-35 7.0500000000000007 6.9500000000000011 6.9150000000000009 1.0000000180025095e-35 1.0000000180025095e-35 1.0000000180025095e-35 1.0000000180025095e-35 6.3500000000000005 1.0000000180025095e-35 1.0000000180025095e-35 1.0000000180025095e-35 0.78500000000000014 1.0000000180025095e-35 1.0000000180025095e-35 1.0000000180025095e-35 1.0000000180025095e-35 48.95000000000001 91.950000000000017 7.4500000000000011 1.0000000180025095e-35 1.0000000180025095e-35
decision_type=2 2 2 2 2 2 2 2 2 2 2 2 2 2 2 2 2 2 2 2 2 2 2 2 2 2 2 2 2 2
left_child=1 3 11 6 9 7 8 13 -1 19 21 17 -9 -4 20 -8 28 24 -12 -3 -5 -6 -11 -18 -2 -13 -16 -19 -7 -27
right_child=2 4 5 14 10 16 15 12 -10 22 18 25 -14 -15 26 -17 23 27 -20 -21 -22 -23 -24 -25 -26 29 -28 -29 -30 -31
leaf_value=-0.39096678455974826 0.024095359067539596 -0.19212344300083711 0.24936490211125914 -0.34115376469931935 0.015237307603319464 0.42126161954908331 -0.20256081965950284 0.42100826872700226 -0.58194023067139844 0.0031997565183512905 0.2062760260974868 0.11802420515230767 0.23516259360936589 0.070837973563702042 -0.11215054693376834 -0.38857234422234005 0.57747445262718455 0.060073104669159799 0.01953724339715061 -0.41936258887205602 -0.15936385005018375 -0.20054456727978828 -0.18247766141180341 0.37033690894396681 -0.15555995362028252 0.23159701231769259 0.069174765278816039 0.25918322705498364 0.2418136106445343 0.43175004560887431
leaf_weight=44372 14724 24620 38568 11372 24346 10957 28041 37121 26368 20071 23677 6532 17560 18967 9245 15395 24334 7033 11995 6550 24592 6255 9869 5645 7596 6398 7440 5671 4694 3992
leaf_count=44372 14724 24620 38568 11372 24346 10957 28041 37121 26368 20071 23677 6532 17560 18967 9245 15395 24334 7033 11995 6550 24592 6255 9869 5645 7596 6398 7440 5671 4694 3992
internal_value=0 -0.195964 0.274816 -0.315753 -0.0390841 0.333315 -0.388476 0.273747 -0.462151 -0.15077 0.063901 0.0970567 0.361327 0.190512 -0.158044 -0.268489 0.479808 0.0304211 0.143484 -0.239875 -0.216847 -0.0288696 -0.0580043 0.538471 -0.0370454 0.234974 -0.0312959 0.148955 0.367442 0.308499
internal_weight=0 294208 209792 166825 127383 157846 114176 112216 70740 61110 66273 51946 54681 57535 52649 43436 45630 35024 35672 31170 35964 30601 29940 29979 22320 16922 16685 12704 15651 10390
internal_count=504000 294208 209792 166825 127383 157846 114176 112216 70740 61110 66273 51946 54681 57535 52649 43436 45630 35024 35672 31170 35964 30601 29940 29979 22320 16922 16685 12704 15651 10390
is_linear=0
shrinkage=0.05


Tree=21
num_leaves=31
num_cat=0
split_feature=1 1 2 2 2 1 14 18 17 13 19 1 18 18 17 13 14 3 19 2 18 3 19 3 19 18 13 19 19 14
split_gain=9.81651e+06 2.03072e+06 853478 651439 522904 478164 365342 326026 320251 250036 240316 183733 159104 152339 151117 140829 134000 113913 109221 94888.7 87053.3 81940.5 74245.3 71242.1 47167.4 44820.1 42371.8 39768.7 32119.8 15165.5
threshold=3.1750000000000003 5.2550000000000008 56.95000000000001 84.550000000000011 61.550000000000004 0.87500000000000011 1.0000000180025095e-35 1.0000000180025095e-35 1.0000000180025095e-35 1.0000000180025095e-35 1.0000000180025095e-35 0.44500000000000006 1.0000000180025095e-35 1.0000000180025095e-35 1.0000000180025095e-35 1.0000000180025095e-35 1.0000000180025095e-35 7.5500000000000007 1.0000000180025095e-35 91.950000000000017 1.0000000180025095e-35 7.0500000000000007 1.0000000180025095e-35 7.9500000000000011 1.0000000180025095e-35 1.0000000180025095e-35 1.0000000180025095e-35 1.0000000180025095e-35 1.0000000180025095e-35 1.0000000180025095e-35
decision_type=2 2 2 2 2 2 2 2 2 2 2 2 2 2 2 2 2 2 2 2 2 2 2 2 2 2 2 2 2 2
left_child=2 4 11 6 17 16 10 8 -7 13 -3 28 14 -6 -5 21 20 22 -8 -11 -4 -13 -2 -9 -18 -17 -19 -14 29 -1
right_child=1 3 5 12 9 7 18 23 -10 19 -12 15 27 -15 -16 25 24 26 -20 -21 -22 -23 -24 -25 -26 -27 -28 -29 -30 -31
leaf_value=-0.49307002229494296 -0.12790893422755273 0.34522296251394047 -0.23672087205868217 0.52020062270720124 0.07646502109032316 -0.044100195931704909 0.15380099401296474 -0.37717461261812907 -0.27342565626655524 0.16106086680181048 0.16047372220203351 -0.52417780934202451 0.31901301616319483 -0.12693812702198268 0.30815461445692643 -0.21454262421864756 -0.40818156984773363 -0.078601128194480577 -0.030895621030669864 0.36216461034921316 -0.45058556359194468 -0.36696990811290986 -0.31566705442304799 -0.19549302478085567 -0.60130506308814591 -0.42158854557909148 0.09198285660140948 0.10635470469909465 -0.74821965835268456 -0.66575524709881184
leaf_weight=3337 15719 53610 20773 35715 46358 61163 24447 15152 20269 23091 26206 17655 7063 11486 10987 11047 8792 10163 11901 7863 6172 15624 7917 8380 4937 3424 5672 3192 3831 2054
leaf_count=3337 15719 53610 20773 35715 46358 61163 24447 15152 20269 23091 26206 17655 7063 11486 10987 11047 8792 10163 11901 7863 6172 15624 7917 8380 4937 3424 5672 3192 3831 2054
internal_value=0 0.180925 -0.269133 0.292642 0.0301451 -0.204949 0.224726 -0.148551 -0.101181 0.0974516 0.284564 -0.433208 0.431156 0.0360756 0.470315 -0.393748 -0.350489 -0.121275 0.0933279 0.212146 -0.285709 -0.450371 -0.190799 -0.312476 -0.47763 -0.263532 -0.017499 0.25282 -0.637526 -0.558864
internal_weight=0 301390 202610 173121 128269 145638 116164 104964 81432 88798 79816 56972 56957 57844 46702 47750 40674 39471 36348 30954 26945 33279 23636 23532 13729 14471 15835 10255 9222 5391
internal_count=504000 301390 202610 173121 128269 145638 116164 104964 81432 88798 79816 56972 56957 57844 46702 47750 40674 39471 36348 30954 26945 33279 23636 23532 13729 14471 15835 10255 9222 5391
is_linear=0
shrinkage=0.05


Tree=22
num_leaves=31
num_cat=0
split_feature=1 1 2 2 2 1 1 14 13 18 17 19 3 3 14 19 18 13 18 17 18 3 17 19 13 18 3 19 3 19
split_gain=8.89715e+06 1.73166e+06 788098 598507 536121 376583 349110 337470 286294 221439 249461 196875 186778 178524 136776 119563 116372 103518 103370 93729.2 91916.1 87783.2 87668.5 87607.7 76591.1 67863.8 46932.7 44920 33101.4 24247.1
threshold=4.6250000000000009 2.3050000000000002 70.250000000000014 82.950000000000017 80.250000000000014 6.9150000000000009 6.9150000000000009 1.0000000180025095e-35 1.0000000180025095e-35 1.0000000180025095e-35 1.0000000180025095e-35 1.0000000180025095e-35 7.1500000000000012 7.5500000000000007 1.0000000180025095e-35 1.0000000180025095e-35 1.0000000180025095e-35 1.0000000180025095e-35 1.0000000180025095e-35 1.0000000180025095e-35 1.0000000180025095e-35 6.0500000000000007 1.0000000180025095e-35 1.0000000180025095e-35 1.0000000180025095e-35 1.0000000180025095e-35 6.8500000000000005 1.0000000180025095e-35 6.0500000000000007 1.0000000180025095e-35
decision_type=2 2 2 2 2 2 2 2 2 2 2 2 2 2 2 2 2 2 2 2 2 2 2 2 2 2 2 2 2 2
left_child=1 3 6 7 8 9 13 11 12 10 -4 -1 -3 20 21 -9 19 25 22 -5 -2 -6 -8 -10 -15 -7 -16 -11 -19 -18
right_child=2 4 5 16 14 17 18 15 23 27 -12 -13 -14 24 26 -17 29 28 -20 -21 -22 -23 -24 -25 -26 -27 -28 -29 -30 -31
leaf_value=-0.23212150391330183 0.031199717396816585 -0.27581126032134956 0.35682016305572545 -0.047814914494169504 0.015575321459388428 0.42903691654332371 0.36895386864665192 -0.41415038312804109 0.060272485677760203 0.14708761961495304 0.12619690074432538 -0.40916644588371232 -0.098914466063361406 0.09832347647013466 -0.12635012469124726 -0.59655824896459764 -0.24025697625243747 0.43900521199251658 0.095483378005404254 -0.24436910237001067 -0.1738726165284952 0.18906348403968556 0.14476306740565806 -0.12291647614790289 0.27477207765906558 0.22811349455136298 0.03564696856365885 -0.041445435196137137 0.60410234979080868 -0.41231558778603444
leaf_weight=43200 28993 31617 49999 24638 10767 22144 18972 24227 19382 9947 15318 24669 28259 16465 8183 14278 6222 4297 6666 8046 6733 22588 5662 9840 9817 5187 9856 4630 10346 3052
leaf_count=43200 28993 31617 49999 24638 10767 22144 18972 24227 19382 9947 15318 24669 28259 16465 8183 14278 6222 4297 6666 8046 6733 22588 5662 9840 9817 5187 9856 4630 10346 3052
internal_value=0 -0.181326 0.243388 -0.300476 -0.0555275 0.327118 0.134031 -0.363554 -0.129709 0.263411 0.302735 -0.296474 -0.192323 0.0653177 0.0730762 -0.481789 -0.140558 0.448379 0.270158 -0.0962017 -0.00744866 0.133061 0.317425 -0.00141321 0.164232 0.390905 -0.0378395 0.0872051 0.555654 -0.29688
internal_weight=0 288824 215176 148332 140492 121868 93308 106374 89098 79894 65317 67869 59876 62008 51394 38505 41958 41974 31300 32684 35726 33355 24634 29222 26282 27331 18039 14577 14643 9274
internal_count=504000 288824 215176 148332 140492 121868 93308 106374 89098 79894 65317 67869 59876 62008 51394 38505 41958 41974 31300 32684 35726 33355 24634 29222 26282 27331 18039 14577 14643 9274
is_linear=0
shrinkage=0.05


Tree=23
num_leaves=31
num_cat=0
split_feature=1 1 2 2 2 1 14 3 3 13 19 13 19 19 19 19 1 20 3 13 3 19 18 14 2 19 19 18 13 18
split_gain=8.05603e+06 1.66895e+06 740908 641966 390916 370710 348164 251639 250589 230636 230149 157566 146078 143018 140221 113727 109611 99868.4 99732.4 99699.3 81823.1 79401.5 72494.6 59167.3 52089.8 46307 46088.5 45186.8 41922.2 41130.6
threshold=3.1750000000000003 6.0150000000000006 73.350000000000009 86.950000000000017 58.45000000000001 0.78500000000000014 1.0000000180025095e-35 6.9500000000000011 6.3500000000000005 1.0000000180025095e-35 1.0000000180025095e-35 1.0000000180025095e-35 1.0000000180025095e-35 1.0000000180025095e-35 1.0000000180025095e-35 1.0000000180025095e-35 1.5350000000000004 1.0000000180025095e-35 6.3500000000000005 1.0000000180025095e-35 7.5500000000000007 1.0000000180025095e-35 1.0000000180025095e-35 1.0000000180025095e-35 92.850000000000009 1.0000000180025095e-35 1.0000000180025095e-35 1.0000000180025095e-35 1.0000000180025095e-35 1.0000000180025095e-35
decision_type=2 2 2 2 2 2 2 2 2 2 2 2 2 2 2 2 2 2 2 2 2 2 2 2 2 2 2 2 2 2
left_child=2 3 5 6 20 18 10 16 21 13 -2 -10 19 -7 17 -8 24 -5 28 -9 25 -6 -11 -18 -4 -3 -20 -14 -1 -16
right_child=1 4 7 14 8 9 15 12 11 22 -12 -13 27 -15 29 -17 23 -19 26 -21 -22 -23 -24 -25 -26 -27 -28 -29 -30 -31
leaf_value=-0.64173190205297326 0.11772451961485207 0.12966555897643012 -0.36041142302101425 0.36392657968983055 0.29236092698316757 -0.27031390344975942 -0.058749638451569636 -0.058264350647997953 0.34821881296888818 -0.10317975939246649 -0.058222294574945911 0.51202080046218024 -0.13522464063105052 -0.43528780158230723 0.13339495990863565 -0.23716009032888336 -0.087498958905760593 0.18944695122341479 -0.33929553754830388 0.1316773158405995 0.23590775276873652 0.1301018501465728 -0.30492380730598012 -0.25540549747641672 -0.18646119750074042 -0.044898938488230199 -0.5128530294057807 -0.33292216142684766 -0.44258526488258065 -0.073581763985919799
leaf_weight=9336 57478 10923 14592 16375 24145 35343 27216 21146 40034 19383 27468 23183 13145 20909 11991 13296 14169 16430 10793 10261 13062 10963 5781 8332 6104 5825 5925 3705 3686 3001
leaf_count=9336 57478 10923 14592 16375 24145 35343 27216 21146 40034 19383 27468 23183 13145 20909 11991 13296 14169 16430 10793 10261 13062 10963 5781 8332 6104 5825 5925 3705 3686 3001
internal_value=0 0.163901 -0.243809 0.0627153 0.300717 -0.330536 0.00330875 -0.138398 0.348804 -0.275349 0.0608306 0.408288 -0.0599275 -0.331635 0.218646 -0.117304 -0.22606 0.276541 -0.481616 0.00379161 0.142108 0.241693 -0.149527 -0.149674 -0.309107 0.0689516 -0.400806 -0.178695 -0.585362 0.0919637
internal_weight=0 301390 202610 173255 128135 111156 125458 91454 98325 81416 84946 63217 48257 56252 47797 40512 43197 32805 29740 31407 29810 35108 25164 22501 20696 16748 16718 16850 13022 14992
internal_count=504000 301390 202610 173255 128135 111156 125458 91454 98325 81416 84946 63217 48257 56252 47797 40512 43197 32805 29740 31407 29810 35108 25164 22501 20696 16748 16718 16850 13022 14992
is_linear=0
shrinkage=0.05


Tree=24
num_leaves=31
num_cat=0
split_feature=1 1 2 2 3 2 3 14 13 19 1 19 3 14 19 20 18 1 1 14 18 17 18 18 18 2 19 3 18 19
split_gain=7.34901e+06 1.53017e+06 657687 640092 457912 378207 367624 252906 219211 213051 164149 161185 150689 148980 143436 115066 114043 93973.8 82402.3 79894.8 68948.9 85177.7 66732.8 57814.2 52538.4 46766.8 25781.5 25433.1 17563.8 11937
threshold=4.6950000000000012 1.6450000000000002 60.550000000000004 53.350000000000001 7.8500000000000005 82.950000000000017 7.6500000000000012 1.0000000180025095e-35 1.0000000180025095e-35 1.0000000180025095e-35 7.1850000000000014 1.0000000180025095e-35 6.3500000000000005 1.0000000180025095e-35 1.0000000180025095e-35 1.0000000180025095e-35 1.0000000180025095e-35 7.1850000000000014 6.4850000000000012 1.0000000180025095e-35 1.0000000180025095e-35 1.0000000180025095e-35 1.0000000180025095e-35 1.0000000180025095e-35 1.0000000180025095e-35 46.050000000000004 1.0000000180025095e-35 8.8500000000000032 1.0000000180025095e-35 1.0000000180025095e-35
decision_type=2 2 2 2 2 2 2 2 2 2 2 2 2 2 2 2 2 2 2 2 2 2 2 2 2 2 2 2 2 2
left_child=1 5 13 17 7 8 9 10 12 -4 -5 15 -1 16 -8 -6 -3 20 -9 24 21 -2 -10 -13 -7 -15 -21 28 -19 -22
right_child=3 2 6 4 11 19 14 18 22 -11 -12 23 -14 25 -16 -17 -18 27 -20 26 29 -23 -24 -25 -26 -27 -28 -29 -30 -31
leaf_value=-0.52845310362928632 0.084197763046958793 -0.1092810815675249 -0.024423391232601125 0.20839706534139021 0.5003485707742642 -0.056870878970134403 0.14394381951513438 0.016268705724314932 -0.19732022824944936 -0.19910919943692784 0.37945372420646084 0.29493339940407343 -0.35646064183964682 -0.44878413295523095 -0.02734065414599356 0.34372974181665156 -0.31972784125253134 0.17671267330212026 0.17387134262674112 -0.217350372524276 -0.11556944012510972 -0.15072170684335065 -0.39361245707258141 0.085531653896456325 -0.25498408787367127 -0.27836530914275692 -0.38208597921800191 0.33429761529296631 -0.012366349478891037 -0.27164431196775224
leaf_weight=21881 16634 28871 51909 50341 23049 15006 36089 18038 17894 26297 19441 17447 30468 5503 18482 23875 8285 5169 15353 7354 3496 5024 5712 4064 4307 14996 3508 2010 1611 1886
leaf_count=21881 16634 28871 51909 50341 23049 15006 36089 18038 17894 26297 19441 17447 30468 5503 18482 23875 8285 5169 15353 7354 3496 5024 5712 4064 4307 14996 3508 2010 1611 1886
internal_value=0 -0.159682 -0.0748945 0.228288 0.268421 -0.311818 -0.0136642 0.201901 -0.37131 -0.083162 0.256053 0.368706 -0.428351 -0.215905 0.0859335 0.420661 -0.156206 0.0360707 0.0887335 -0.162067 -0.0100973 0.0297036 -0.244818 0.255372 -0.101052 -0.324115 -0.270554 0.178094 0.131785 -0.170262
internal_weight=0 296562 190432 207438 171608 106130 132777 103173 75955 78206 69782 68435 52349 57655 54571 46924 37156 35830 33391 30175 27040 21658 23606 21511 19313 20499 10862 8790 6780 5382
internal_count=504000 296562 190432 207438 171608 106130 132777 103173 75955 78206 69782 68435 52349 57655 54571 46924 37156 35830 33391 30175 27040 21658 23606 21511 19313 20499 10862 8790 6780 5382
is_linear=0
shrinkage=0.05


Tree=25
num_leaves=31
num_cat=0
split_feature=1 1 2 2 2 3 13 18 17 19 3 18 17 20 13 3 19 13 18 2 13 1 13 19 18 3 1 20 18 19
split_gain=6.6628e+06 1.48071e+06 596798 505948 427733 349957 301855 257245 300452 202441 172720 141190 146128 140402 138738 136931 128201 96600.3 88316.6 79798.1 66419.5 59742.8 56071.7 52212 51639.1 39054.5 37163.2 34029.2 31405.6 29160.6
threshold=3.0350000000000006 5.2550000000000008 56.95000000000001 84.550000000000011 87.950000000000017 6.5500000000000007 1.0000000180025095e-35 1.0000000180025095e-35 1.0000000180025095e-35 1.0000000180025095e-35 5.5500000000000007 1.0000000180025095e-35 1.0000000180025095e-35 1.0000000180025095e-35 1.0000000180025095e-35 7.4500000000000011 1.0000000180025095e-35 1.0000000180025095e-35 1.0000000180025095e-35 46.050000000000004 1.0000000180025095e-35 0.44500000000000006 1.0000000180025095e-35 1.0000000180025095e-35 1.0000000180025095e-35 6.1500000000000012 0.44500000000000006 1.0000000180025095e-35 1.0000000180025095e-35 1.0000000180025095e-35
decision_type=2 2 2 2 2 2 2 2 2 2 2 2 2 2 2 2 2 2 2 2 2 2 2 2 2 2 2 2 2 2
left_child=2 4 15 6 7 11 10 8 -2 13 -3 12 -4 -7 18 19 -8 24 -5 29 -11 -21 -9 27 -6 -16 -13 -17 -19 -1
right_child=1 3 5 14 17 9 16 22 -10 20 -12 26 -14 -15 25 23 -18 28 -20 21 -22 -23 -24 -25 -26 -27 -28 -29 -30 -31
leaf_value=-0.47995937403935235 0.063156534753203444 -0.020500674699926679 -0.17235289058037032 0.34304437592452036 0.15093111214737193 0.034967939770572574 0.34805084002358355 -0.24665273802474116 -0.16131986869824688 -0.26786904064431566 0.16160979310389897 -0.58593330141712474 -0.37978461950939635 -0.12867205818128022 0.36549094164353885 -0.13559092792786984 0.1646424355109305 0.32860712032121775 0.14538111845402638 -0.54950714639507192 -0.10432201029612985 -0.34105342318212611 -0.071406470996708812 -0.37512922549708932 -0.037975386795404978 0.51689665300641385 -0.37042856084848963 -0.29144542737478174 0.11653262396629072 -0.65008282422003882
leaf_weight=6350 62268 16924 33384 30142 18121 25501 28479 13728 19598 19184 56443 2437 11386 26972 6186 6907 14318 9594 6955 4240 9178 18154 6838 7936 4520 13674 11169 7105 2134 4175
leaf_count=6350 62268 16924 33384 30142 18121 25501 28479 13728 19598 19184 56443 2437 11386 26972 6186 6907 14318 9594 6955 4240 9178 18154 6838 7936 4520 13674 11169 7105 2134 4175
internal_value=0 0.143862 -0.229732 0.241013 0.020917 -0.174687 0.18116 -0.0302956 0.00941886 -0.107319 0.119601 -0.267975 -0.225107 -0.0491458 0.363083 -0.369393 0.28669 0.173549 0.305986 -0.43389 -0.214945 -0.380521 -0.188385 -0.272657 0.113218 0.469737 -0.409028 -0.214619 0.290019 -0.547443
internal_weight=0 309922 194078 173121 136801 139211 116164 102432 81866 80835 73367 58376 44770 52473 56957 54867 42797 34369 37097 32919 28362 22394 20566 21948 22641 19860 13606 14012 11728 10525
internal_count=504000 309922 194078 173121 136801 139211 116164 102432 81866 80835 73367 58376 44770 52473 56957 54867 42797 34369 37097 32919 28362 22394 20566 21948 22641 19860 13606 14012 11728 10525
is_linear=0
shrinkage=0.05


Tree=26
num_leaves=31
num_cat=0
split_feature=1 1 2 1 2 2 19 14 20 14 18 19 1 18 3 13 19 13 3 3 18 2 3 13 3 3 18 3 18 18
split_gain=6.03593e+06 1.01713e+06 739606 534944 429234 323675 268916 256841 218800 187548 169900 157857 154225 134907 120401 118283 93593.5 92190.7 83307.4 80917.2 76488.2 76068.4 60283.5 59452.3 57958.6 51133.6 34577.5 31837.3 26976.4 16472.2
threshold=3.6050000000000004 6.0450000000000008 86.950000000000017 1.4750000000000003 55.45000000000001 75.550000000000011 1.0000000180025095e-35 1.0000000180025095e-35 1.0000000180025095e-35 1.0000000180025095e-35 1.0000000180025095e-35 1.0000000180025095e-35 1.5750000000000004 1.0000000180025095e-35 8.8500000000000032 1.0000000180025095e-35 1.0000000180025095e-35 1.0000000180025095e-35 7.1500000000000012 7.6500000000000012 1.0000000180025095e-35 50.95000000000001 6.5500000000000007 1.0000000180025095e-35 7.6500000000000012 7.8500000000000005 1.0000000180025095e-35 6.5500000000000007 1.0000000180025095e-35 1.0000000180025095e-35
decision_type=2 2 2 2 2 2 2 2 2 2 2 2 2 2 2 2 2 2 2 2 2 2 2 2 2 2 2 2 2 2
left_child=2 4 3 9 17 11 8 10 -6 13 -5 15 23 -1 16 -3 -7 24 -8 -9 22 -11 -14 26 -2 -13 -4 -19 -16 -25
right_child=1 5 12 7 6 14 18 19 -10 21 -12 25 20 -15 28 -17 -18 27 -20 -21 -22 -23 -24 29 -26 -27 -28 -29 -30 -31
leaf_value=-0.23162058362096039 -0.21466875270594499 0.17623084394086883 -0.13675943256756981 -0.059474377595826335 0.25158289791324279 0.3527555502499965 -0.074039052609474548 -0.32604702957284609 0.085309716652734902 -0.58483672203511083 -0.2553671918605675 0.011794525010741005 -0.0076579078989862208 -0.42644762887376797 0.50074095802697471 0.34790266078699283 0.20057369817004567 -0.074692619383085121 0.077994369871897062 -0.17351112052690898 -0.10532799412561621 -0.39387273351307489 0.15823637203783403 0.039733572210185572 -0.045304669933195069 0.16975280254709441 -0.31760593961554967 0.09090554813303553 0.32591199176220492 -0.14795845308272551
leaf_weight=36718 13332 27364 11885 50295 38674 32165 18071 22851 40510 6963 14192 13125 8905 11722 12051 15843 14730 4938 17971 14034 6050 20771 14222 5452 8133 8404 3399 7041 2701 1488
leaf_count=36718 13332 27364 11885 50295 38674 32165 18071 22851 40510 6963 14192 13125 8905 11722 12051 15843 14730 4938 17971 14034 6050 20771 14222 5452 8133 8404 3399 7041 2701 1488
internal_value=0 0.157865 -0.189656 -0.23801 0.0692144 0.262149 0.114985 -0.162777 0.166519 -0.338131 -0.102586 0.184065 -0.0226348 -0.278767 0.344146 0.239179 0.304954 -0.088482 0.00176675 -0.26801 0.052953 -0.441817 0.0943591 -0.121871 -0.150497 0.0734547 -0.176978 0.0226424 0.468731 -0.000509329
internal_weight=0 275053 228947 177546 148670 126383 115226 101372 79184 76174 64487 64736 51401 48440 61647 43207 46895 33444 36042 36885 29177 27734 23127 22224 21465 21529 15284 11979 14752 6940
internal_count=504000 275053 228947 177546 148670 126383 115226 101372 79184 76174 64487 64736 51401 48440 61647 43207 46895 33444 36042 36885 29177 27734 23127 22224 21465 21529 15284 11979 14752 6940
is_linear=0
shrinkage=0.05


Tree=27
num_leaves=31
num_cat=0
split_feature=1 1 2 2 2 1 13 18 17 3 3 14 13 18 17 2 3 19 3 18 20 18 1 19 3 19 3 18 19 19
split_gain=5.48494e+06 1.16483e+06 525161 454328 371558 351494 309965 227566 278027 212059 199583 157792 118959 105810 106164 100287 94343.5 92446.1 92006.4 88178.9 79806 67586.5 54137.9 47082.4 40436.4 35202.6 32892.6 29185.3 23988 19561.5
threshold=4.6950000000000012 2.6450000000000005 85.050000000000011 50.95000000000001 59.350000000000001 7.1850000000000014 1.0000000180025095e-35 1.0000000180025095e-35 1.0000000180025095e-35 6.6500000000000012 6.1500000000000012 1.0000000180025095e-35 1.0000000180025095e-35 1.0000000180025095e-35 1.0000000180025095e-35 91.950000000000017 8.8500000000000032 1.0000000180025095e-35 6.4500000000000011 1.0000000180025095e-35 1.0000000180025095e-35 1.0000000180025095e-35 6.9150000000000009 1.0000000180025095e-35 6.6500000000000012 1.0000000180025095e-35 5.5500000000000007 1.0000000180025095e-35 1.0000000180025095e-35 1.0000000180025095e-35
decision_type=2 2 2 2 2 2 2 2 2 2 2 2 2 2 2 2 2 2 2 2 2 2 2 2 2 2 2 2 2 2
left_child=1 3 5 18 17 7 10 8 -2 19 -5 16 -11 14 -7 -8 21 20 25 -6 -3 -4 26 -20 -9 -1 -13 -19 -15 -24
right_child=2 4 11 6 9 13 15 24 -10 12 -12 22 -14 28 -16 -17 -18 27 23 -21 -22 -23 29 -25 -26 -27 -28 -29 -30 -31
leaf_value=-0.43131698548584008 0.18040843293896958 -0.0087288939030270365 0.35828559784094094 -0.33335710679455099 -0.02352756495314404 0.36580337112217076 -0.10956181138846616 -0.14418036019004493 -0.035887402092311511 0.037342782643464197 -0.18154669835285736 0.017780968736212356 0.19316863689394934 0.17004880448608151 0.14862655680939835 0.092497561635963621 0.49528406316383222 -0.23094885622172534 -0.26031836724169011 -0.20959858064946491 -0.19262486137275237 0.16967038358939929 0.3669739175461646 -0.43081368572406187 0.0022148349677730949 -0.59686805863796555 0.19102158777944986 -0.41478495902994333 -0.013330993924414164 0.1913135076553725
leaf_weight=8098 63886 11434 27732 34120 31504 23299 35167 8266 19359 35404 59239 3696 18726 5500 7419 7440 10912 9725 11048 7980 12189 5731 5127 6392 10986 5321 10592 2775 2639 2294
leaf_count=8098 63886 11434 27732 34120 31504 23299 35167 8266 19359 35404 59239 3696 18726 5500 7419 7440 10912 9725 11048 7980 12189 5731 5127 6392 10986 5321 10592 2775 2639 2294
internal_value=0 -0.137952 0.197221 -0.225338 -0.0255838 0.142826 -0.186029 0.0942795 0.130108 0.0269783 -0.237029 0.313575 0.0912499 0.27088 0.313351 -0.0742784 0.367615 -0.1618 -0.398538 -0.0611339 -0.103616 0.325983 0.203112 -0.322807 -0.0606411 -0.496963 0.146208 -0.27176 0.110589 0.312673
internal_weight=0 296562 207438 166825 129737 141354 135966 102497 83245 93614 93359 66084 54130 38857 30718 42607 44375 36123 30859 39484 23623 33463 21709 17440 19252 13419 14288 12500 8139 7421
internal_count=504000 296562 207438 166825 129737 141354 135966 102497 83245 93614 93359 66084 54130 38857 30718 42607 44375 36123 30859 39484 23623 33463 21709 17440 19252 13419 14288 12500 8139 7421
is_linear=0
shrinkage=0.05


Tree=28
num_leaves=31
num_cat=0
split_feature=1 1 2 2 3 3 2 13 19 19 1 18 20 1 19 3 14 13 3 14 19 18 19 19 20 19 3 20 2 1
split_gain=4.95874e+06 986583 559315 448494 406984 338538 284886 266546 205391 172929 170704 136156 122434 114063 101995 89459 70499.2 69571 66263.8 62808.3 49574.9 44668.4 42873.1 42104.9 41724.9 38235.8 26740.4 24352.2 23733.4 18534.4
threshold=4.5050000000000008 1.6450000000000002 53.350000000000001 92.15000000000002 6.0500000000000007 7.6500000000000012 82.950000000000017 1.0000000180025095e-35 1.0000000180025095e-35 1.0000000180025095e-35 7.1550000000000011 1.0000000180025095e-35 1.0000000180025095e-35 6.7550000000000008 1.0000000180025095e-35 7.5500000000000007 1.0000000180025095e-35 1.0000000180025095e-35 6.3500000000000005 1.0000000180025095e-35 1.0000000180025095e-35 1.0000000180025095e-35 1.0000000180025095e-35 1.0000000180025095e-35 1.0000000180025095e-35 1.0000000180025095e-35 5.5500000000000007 1.0000000180025095e-35 97.950000000000017 5.8550000000000013
decision_type=2 2 2 2 2 2 2 2 2 2 2 2 2 2 2 2 2 2 2 2 2 2 2 2 2 2 2 2 2 2
left_child=1 6 15 5 13 8 9 10 -3 12 -6 -7 -1 17 -9 20 23 -4 -11 22 24 -15 -8 -5 -2 27 -18 -17 -21 -22
right_child=2 3 4 16 7 11 19 14 -10 18 -12 -13 -14 21 -16 25 26 -19 -20 28 29 -23 -24 -25 -26 -27 -28 -29 -30 -31
leaf_value=-0.171284323177708 0.083183525094184529 -0.10653477769981519 0.0012784613688721965 0.23767781634180074 0.1636698327899973 0.032237916846099182 -0.021023130771212581 0.41273529446999491 -0.26527073283180275 -0.49921804839259354 0.32669354597914002 -0.15066100609525648 -0.33112255832375564 0.23345848593187393 0.25087779682867634 0.22503844667580433 -0.11981257786576326 0.14551123729915649 -0.34352356352386437 -0.26024059711741648 -0.24861342687287646 0.046854668639648753 -0.17792196862796805 0.069426724253958766 -0.087110148619466352 -0.01149341711450597 0.065100119238552745 0.074923167525810283 -0.069404362955657647 -0.093536517187164769
leaf_weight=23457 6929 59425 23924 11501 56553 46730 12683 31123 31014 11832 22425 13008 24488 16902 14162 5309 2656 12852 16178 8866 3432 3958 6630 5495 7480 5689 7409 5501 1996 4393
leaf_count=23457 6929 59425 23924 11501 56553 46730 12683 31123 31014 11832 22425 13008 24488 16902 14162 5309 2656 12852 16178 8866 3432 3958 6630 5495 7480 5689 7409 5501 1996 4393
internal_value=0 -0.138388 0.177739 -0.0661942 0.214474 -0.0999571 -0.258953 0.26541 -0.16097 -0.310587 0.209959 -0.00758848 -0.252922 0.104658 0.362118 0.00521888 0.121176 0.0516831 -0.409292 -0.128984 -0.0602389 0.198052 -0.0748853 0.18328 -0.00521933 0.0934296 0.0163045 0.148648 -0.225173 -0.161552
internal_weight=0 283368 220632 177238 181899 150177 106130 124263 90439 75955 78978 59738 47945 57636 45285 38733 27061 36776 28010 30175 22234 20860 19313 16996 14409 16499 10065 10810 10862 7825
internal_count=504000 283368 220632 177238 181899 150177 106130 124263 90439 75955 78978 59738 47945 57636 45285 38733 27061 36776 28010 30175 22234 20860 19313 16996 14409 16499 10065 10810 10862 7825
is_linear=0
shrinkage=0.05


Tree=29
num_leaves=31
num_cat=0
split_feature=1 1 2 2 18 17 15 2 14 14 19 3 18 17 13 3 1 18 14 19 19 13 17 18 2 19 19 13 3 1
split_gain=4.52476e+06 1.01853e+06 456879 415472 329861 380711 510253 313332 246630 200862 156346 136642 107487 129181 103524 89225.4 76072.4 75062.4 74902.9 64779.7 58043.4 56673.2 50152 76600.7 38752.4 37250.7 24997.2 21598.8 19044.3 13458.2
threshold=3.0350000000000006 5.6950000000000012 50.95000000000001 58.95000000000001 1.0000000180025095e-35 1.0000000180025095e-35 1.0000000180025095e-35 80.950000000000017 1.0000000180025095e-35 1.0000000180025095e-35 1.0000000180025095e-35 7.8500000000000005 1.0000000180025095e-35 1.0000000180025095e-35 1.0000000180025095e-35 7.4500000000000011 0.75500000000000012 1.0000000180025095e-35 1.0000000180025095e-35 1.0000000180025095e-35 1.0000000180025095e-35 1.0000000180025095e-35 1.0000000180025095e-35 1.0000000180025095e-35 48.050000000000004 1.0000000180025095e-35 1.0000000180025095e-35 1.0000000180025095e-35 7.9500000000000011 0.18500000000000003
decision_type=2 2 2 2 2 2 2 2 2 2 2 2 2 2 2 2 2 2 2 2 2 2 2 2 2 2 2 2 2 2
left_child=2 3 15 14 5 6 -4 9 10 11 -5 -3 13 -9 19 22 28 -10 -7 -2 -11 -18 23 -1 -16 27 -14 -17 -6 -27
right_child=1 7 4 8 16 18 -8 12 17 20 -12 -13 26 -15 24 25 21 -19 -20 -21 -22 -23 -24 -25 -26 29 -28 -29 -30 -31
leaf_value=-0.30861116559711282 -0.10041993693330967 0.14529515446694433 0.024641191663343966 0.17980039361650249 -0.45509631072208523 -0.20730169593768513 -0.22181994467763386 0.3813701492726605 0.013499781734707707 0.094750007058203092 0.028142307065574069 0.29653705625317817 0.2099662164079947 0.18712170958105753 -0.091241352520281482 -0.25025622472450554 -0.29086019754327319 -0.15726616024970352 -0.36977041415012102 -0.25788418081659609 -0.05762224250736972 -0.13557110432086783 -0.56840016496072565 -0.54328821179815201 0.071226550713579431 -0.62944359773335501 0.041926942594350584 -0.08648615391382708 -0.30338379381535518 -0.33796064026256928
leaf_weight=11698 19055 37842 59126 53648 6455 19472 32568 36361 30347 18855 24873 24670 7107 11194 6110 5743 18753 8167 11160 9938 9349 8556 4387 4948 9192 433 3214 3100 3044 4635
leaf_count=11698 19055 37842 59126 53648 6455 19472 32568 36361 30347 18855 24873 24670 7107 11194 6110 5743 18753 8167 11160 9938 9349 8556 4387 4948 9192 433 3214 3100 3044 4635
internal_value=0 0.118553 -0.189317 0.0315631 -0.153368 -0.11388 -0.0628972 0.213001 0.0809262 0.155007 0.13176 0.204982 0.303902 0.335646 -0.0988627 -0.353028 -0.284601 -0.0227116 -0.266493 -0.154394 0.044242 -0.242208 -0.418005 -0.378369 0.00635406 -0.254786 0.157638 -0.192845 -0.406479 -0.362864
internal_weight=0 309922 194078 161330 159134 122326 91694 148592 117035 90716 78521 62512 57876 47555 44295 34944 36808 38514 30632 28993 28204 27309 21033 16646 15302 13911 10321 8843 9499 5068
internal_count=504000 309922 194078 161330 159134 122326 91694 148592 117035 90716 78521 62512 57876 47555 44295 34944 36808 38514 30632 28993 28204 27309 21033 16646 15302 13911 10321 8843 9499 5068
is_linear=0
shrinkage=0.05


Tree=30
num_leaves=31
num_cat=0
split_feature=1 1 2 2 14 2 3 3 13 3 19 20 18 17 1 18 15 19 1 18 18 18 17 19 18 3 19 14 19 14
split_gain=4.088e+06 915716 440308 424659 274486 257077 215690 189045 184916 169346 165321 132986 124056 153318 116258 110377 131871 85178.6 82362.4 57020.2 54181.7 53062.7 55789.7 51649.2 51345.1 34085.4 27080.5 26248.3 20823.6 17576.5
threshold=4.7350000000000012 1.7450000000000003 80.950000000000017 70.750000000000014 1.0000000180025095e-35 86.950000000000017 8.8500000000000032 7.8500000000000005 1.0000000180025095e-35 6.6500000000000012 1.0000000180025095e-35 1.0000000180025095e-35 1.0000000180025095e-35 1.0000000180025095e-35 0.15500000000000003 1.0000000180025095e-35 1.0000000180025095e-35 1.0000000180025095e-35 7.245000000000001 1.0000000180025095e-35 1.0000000180025095e-35 1.0000000180025095e-35 1.0000000180025095e-35 1.0000000180025095e-35 1.0000000180025095e-35 7.8500000000000005 1.0000000180025095e-35 1.0000000180025095e-35 1.0000000180025095e-35 1.0000000180025095e-35
decision_type=2 2 2 2 2 2 2 2 2 2 2 2 2 2 2 2 2 2 2 2 2 2 2 2 2 2 2 2 2 2
left_child=1 5 4 7 9 8 10 15 14 -3 11 -5 13 -4 -1 16 -2 -6 24 -12 -10 22 -8 25 -9 -7 -14 -20 -17 -25
right_child=3 2 12 6 17 23 21 18 20 -11 19 -13 26 -15 -16 28 -18 -19 27 -21 -22 -23 -24 29 -26 -27 -28 -29 -30 -31
leaf_value=-0.48453667581484283 0.11643518713871309 -0.13410102274506683 0.13919989212830805 0.31845469686352623 -0.15602776567336407 -0.090104623876684609 0.44119519553165309 0.17074399647561805 -0.12338320416970978 0.013892328366435964 0.13074718778728747 0.17107096666206525 -0.030551471586264645 -0.064530997879176932 -0.28980460153548898 -0.059829636552707045 -0.084667479917613794 -0.30393126607809112 0.36329951679488492 -0.055925088020337722 -0.28697058880516252 0.21461821904666056 0.24710027530882683 -0.13357537980944442 -0.0099688812147308969 0.061005264615184789 -0.18246952297733388 0.17902595014944642 -0.20629971093866045 -0.28652377284666775
leaf_weight=8990 34363 34264 39080 30437 27629 9880 16234 20273 21041 44350 22681 30787 8991 12092 51986 7394 10687 15030 6621 4991 6665 4926 4796 5349 4876 5997 4354 2729 3612 2895
leaf_count=8990 34363 34264 39080 30437 27629 9880 16234 20273 21041 44350 22681 30787 8991 12092 51986 7394 10687 15030 6621 4991 6665 4926 4796 5349 4876 5997 4354 2729 3612 2895
internal_value=0 -0.118108 -0.0498801 0.171689 -0.106023 -0.230481 0.235526 0.0907243 -0.269847 -0.0506107 0.198501 0.244342 0.0556514 0.0910581 -0.318515 0.0340496 0.0687285 -0.208138 0.182813 0.0970784 -0.162736 0.362331 0.396931 -0.0857496 0.135707 -0.033028 -0.0801169 0.309515 -0.107899 -0.187285
internal_weight=0 298593 185790 205407 121273 112803 114852 90555 88682 78614 88896 61224 64517 51172 60976 56056 45050 42659 34499 27672 27706 25956 21030 24121 25149 15877 13345 9350 11006 8244
internal_count=504000 298593 185790 205407 121273 112803 114852 90555 88682 78614 88896 61224 64517 51172 60976 56056 45050 42659 34499 27672 27706 25956 21030 24121 25149 15877 13345 9350 11006 8244
is_linear=0
shrinkage=0.05


Tree=31
num_leaves=31
num_cat=0
split_feature=1 1 2 2 19 18 17 20 18 17 15 1 3 13 3 17 18 15 1 19 2 2 13 19 19 14 13 14 3 3
split_gain=3.73258e+06 855669 417335 399377 308047 286522 381860 259004 236520 283902 436950 125107 110890 109178 87629.2 78246 121148 120470 76430.7 58485.6 57365.6 48352.6 42492.3 38003.1 35070.5 35061 19152.2 17195.5 12878.9 9540.7
threshold=3.0350000000000006 6.0150000000000006 89.65000000000002 50.650000000000013 1.0000000180025095e-35 1.0000000180025095e-35 1.0000000180025095e-35 1.0000000180025095e-35 1.0000000180025095e-35 1.0000000180025095e-35 1.0000000180025095e-35 0.87500000000000011 7.9500000000000011 1.0000000180025095e-35 7.4500000000000011 1.0000000180025095e-35 1.0000000180025095e-35 1.0000000180025095e-35 0.44500000000000006 1.0000000180025095e-35 72.65000000000002 89.65000000000002 1.0000000180025095e-35 1.0000000180025095e-35 1.0000000180025095e-35 1.0000000180025095e-35 1.0000000180025095e-35 1.0000000180025095e-35 6.0500000000000007 7.9500000000000011
decision_type=2 2 2 2 2 2 2 2 2 2 2 2 2 2 2 2 2 2 2 2 2 2 2 2 2 2 2 2 2 2
left_child=3 2 5 15 7 6 -2 11 9 10 -3 -5 18 -9 22 16 17 -1 -6 -7 -11 24 -4 -16 -10 -14 -18 29 -23 -17
right_child=1 8 14 4 12 19 -8 13 21 20 -12 -13 25 -15 23 27 26 -19 -20 -21 -22 28 -24 -25 -26 -27 -28 -29 -30 -31
leaf_value=-0.13170816610656408 0.083601227965318228 0.36243212271591502 0.063216654283185278 -0.12256383042986584 -0.43134491252189533 -0.095563762596278481 -0.13226309674047823 -0.21405922880966438 0.077088318061912631 0.0093183688874870912 0.10446282093107079 0.047057221092466406 -0.087312603988928428 -0.060958975064964005 0.30652788793693042 -0.46707394443025507 -0.50783739071279688 -0.39553811204958711 -0.24869072174046516 -0.24978306894344687 0.16197822582863228 0.084647138200614119 0.21283129037415841 0.15231810745481353 -0.067003083929162738 -0.22760180295456914 -0.33811402810991509 -0.57990228729769588 0.25372879249697439 -0.30355873232660457
leaf_weight=12599 86713 55492 14772 15878 7078 18595 26825 36052 13024 11344 23310 34472 12717 17200 12923 2892 5422 6590 30012 9184 13450 1632 6992 5783 6249 6854 2397 2625 3634 1290
leaf_count=12599 86713 55492 14772 15878 7078 18595 26825 36052 13024 11344 23310 34472 12717 17200 12923 2892 5422 6590 30012 9184 13450 1632 6992 5783 6249 6854 2397 2625 3634 1290
